{"learner":{"attributes":{"best_iteration":"15","best_ntree_limit":"16","best_score":"1.0","scikit_learn":"{\"use_label_encoder\": false, \"n_estimators\": 1000, \"objective\": \"binary:logistic\", \"max_depth\": 5, \"learning_rate\": 0.04, \"verbosity\": 0, \"booster\": null, \"tree_method\": null, \"gamma\": null, \"min_child_weight\": 5, \"max_delta_step\": null, \"subsample\": null, \"colsample_bytree\": 0.5, \"colsample_bylevel\": null, \"colsample_bynode\": null, \"reg_alpha\": null, \"reg_lambda\": null, \"scale_pos_weight\": null, \"base_score\": null, \"missing\": NaN, \"num_parallel_tree\": null, \"kwargs\": {\"eval_metric\": \"auc\", \"nthread\": 24, \"seed\": 42, \"num_class\": 1}, \"random_state\": null, \"n_jobs\": null, \"monotone_constraints\": null, \"interaction_constraints\": null, \"importance_type\": \"gain\", \"gpu_id\": null, \"validate_parameters\": null, \"classes_\": [0, 1], \"n_classes_\": 2, \"evals_result_\": {\"validation_0\": {\"auc\": [0.999446, 0.999446, 0.999996, 0.999806, 0.999589, 0.99506, 0.999733, 0.99936, 0.999974, 0.999995, 0.999998, 0.999995, 0.999998, 0.999996, 0.999998, 1.0, 1.0, 0.999999, 1.0, 0.999999, 0.999999, 0.999998, 0.999999, 0.999999, 0.999998, 0.999999, 0.999999, 0.999999, 0.999999, 0.999999, 1.0, 1.0, 0.999999, 0.999999, 1.0, 0.999999, 1.0, 0.999999, 0.999999, 0.999999, 0.999999, 0.999999, 0.999999, 0.999999, 0.999999, 0.999999, 0.999998, 0.999998, 0.999998, 0.999996, 0.999999, 0.999998, 0.999996, 0.999996, 0.999996, 0.999996, 0.999996, 0.999996, 0.999998, 0.999996, 0.999998, 0.999996, 0.999996, 0.999996, 0.999996, 0.999996, 0.999996, 0.999996, 0.999995, 0.999995, 0.999995, 0.999995, 0.999995, 0.999995, 0.999995, 0.999995, 0.999995, 0.999995, 0.999995, 0.999995, 0.999995, 0.999995, 0.999995, 0.999995, 0.999995, 0.999995, 0.999995, 0.999996, 0.999995, 0.999996, 0.999995, 0.999995, 0.999995, 0.999995, 0.999995, 0.999995, 0.999998, 0.999998, 0.999998, 0.999998, 0.999998, 0.999998, 0.999996, 0.999998, 0.999996, 0.999996, 0.999996, 0.999996, 0.999996, 0.999996, 0.999996, 0.999998, 0.999996, 0.999996, 0.999996, 0.999998]}}, \"_estimator_type\": \"classifier\"}"},"feature_names":[],"feature_types":[],"gradient_booster":{"model":{"gbtree_model_param":{"num_trees":"116","size_leaf_vector":"0"},"tree_info":[0,0,0,0,0,0,0,0,0,0,0,0,0,0,0,0,0,0,0,0,0,0,0,0,0,0,0,0,0,0,0,0,0,0,0,0,0,0,0,0,0,0,0,0,0,0,0,0,0,0,0,0,0,0,0,0,0,0,0,0,0,0,0,0,0,0,0,0,0,0,0,0,0,0,0,0,0,0,0,0,0,0,0,0,0,0,0,0,0,0,0,0,0,0,0,0,0,0,0,0,0,0,0,0,0,0,0,0,0,0,0,0,0,0,0,0],"trees":[{"base_weights":[7.495374E-1,2.9962916E0,-1.4858627E0,-5.643565E-1,-1.4968877E0,-9.272728E-1,-1.09090984E-1],"categories":[],"categories_nodes":[],"categories_segments":[],"categories_sizes":[],"default_left":[true,false,true,true,false,false,false],"id":0,"left_children":[1,-1,3,5,-1,-1,-1],"loss_changes":[8.1479863E3,0E0,7.4194336E0,1.753015E0,0E0,0E0,0E0],"parents":[2147483647,0,0,2,2,3,3],"right_children":[2,-1,4,6,-1,-1,-1],"split_conditions":[1.5304392E-2,1.1985166E-1,1.6665764E-2,4.9470447E-4,-5.9875507E-2,-3.7090912E-2,-4.3636393E-3],"split_indices":[3,0,3,21,0,0,0],"split_type":[0,0,0,0,0,0,0],"sum_hessian":[1.6204443E3,8.0799994E2,8.124444E2,1.0222221E1,8.0222217E2,5.1111107E0,5.1111107E0],"tree_param":{"num_deleted":"0","num_feature":"96","num_nodes":"7","size_leaf_vector":"0"}},{"base_weights":[7.121175E-1,2.7707987E0,-1.4567873E0,-5.490959E-1,-1.4678001E0,-9.0598387E-1,-1.0557268E-1],"categories":[],"categories_nodes":[],"categories_segments":[],"categories_sizes":[],"default_left":[true,false,true,true,false,false,false],"id":1,"left_children":[1,-1,3,5,-1,-1,-1],"loss_changes":[7.30497E3,0E0,7.1601562E0,1.6693337E0,0E0,0E0,0E0],"parents":[2147483647,0,0,2,2,3,3],"right_children":[2,-1,4,6,-1,-1,-1],"split_conditions":[1.5304392E-2,1.10831946E-1,1.6665764E-2,4.9470447E-4,-5.8712006E-2,-3.6239352E-2,-4.222907E-3],"split_indices":[3,0,3,21,0,0,0],"split_type":[0,0,0,0,0,0,0],"sum_hessian":[1.6341171E3,8.3821893E2,7.958982E2,1.0150433E1,7.8574774E2,5.0467715E0,5.103661E0],"tree_param":{"num_deleted":"0","num_feature":"96","num_nodes":"7","size_leaf_vector":"0"}},{"base_weights":[6.796791E-1,-1.4321705E0,1.9020579E0,-1.4416701E0,-2.5588757E-1,2.1697173E0,5.6728834E-1,-2.8953335E-1,2.2260847E0,1.5312147E0,-1.354909E0,-8.478131E-1,1.1660693E0,1.4164537E0,2.2629974E0,1.8574861E0,-6.856911E-1,-1.3995918E0,-7.467152E-1,-1.2077715E0,-5.471892E-1,1.0831208E0,2.3231592E0,1.926962E0,2.3218336E0,2.1541586E0,-1.3295947E-1,4.9636504E-1,-1.308823E0],"categories":[],"categories_nodes":[],"categories_segments":[],"categories_sizes":[],"default_left":[true,true,true,false,false,true,true,true,true,true,true,true,false,true,true,true,true,false,false,false,false,false,false,false,false,false,false,false,false],"id":2,"left_children":[1,3,5,-1,-1,7,9,11,13,15,17,19,-1,21,23,25,27,-1,-1,-1,-1,-1,-1,-1,-1,-1,-1,-1,-1],"loss_changes":[4.24129E3,6.3637695E0,3.7046387E2,0E0,0E0,1.20726074E2,3.2657382E2,1.7481056E1,2.2106934E1,8.598184E1,5.589142E-1,9.8913574E-1,0E0,9.453552E0,1.15078125E1,6.0729004E1,1.2254374E1,0E0,0E0,0E0,0E0,0E0,0E0,0E0,0E0,0E0,0E0,0E0,0E0],"parents":[2147483647,0,0,1,1,2,2,5,5,6,6,7,7,8,8,9,9,10,10,11,11,13,13,14,14,15,15,16,16],"right_children":[2,4,6,-1,-1,8,10,12,14,16,18,20,-1,22,24,26,28,-1,-1,-1,-1,-1,-1,-1,-1,-1,-1,-1,-1],"split_conditions":[4.9241784E-4,4.840754E-3,2.1707715E-2,-5.76668E-2,-1.0235502E-2,4.935077E-4,4.920632E-4,4.9320067E-4,4.939275E-4,4.8990606E-4,4.9544114E-4,4.929595E-4,4.664277E-2,5.146923E-4,4.961379E-4,4.920837E-4,2.5484115E-2,-5.598367E-2,-2.9868606E-2,-4.831086E-2,-2.1887567E-2,4.3324832E-2,9.292637E-2,7.707848E-2,9.287334E-2,8.6166345E-2,-5.3183786E-3,1.9854601E-2,-5.235292E-2],"split_indices":[11,34,1,0,0,11,4,20,11,28,4,11,0,20,1,15,1,0,0,0,0,0,0,0,0,0,0,0,0],"split_type":[0,0,0,0,0,0,0,0,0,0,0,0,0,0,0,0,0,0,0,0,0,0,0,0,0,0,0,0,0],"sum_hessian":[1.6409131E3,6.0152075E2,1.0393923E3,5.96478E2,5.042753E0,8.652578E2,1.7413452E2,1.9295061E1,8.4596277E2,1.1611141E2,5.8023113E1,1.4247968E1,5.047094E0,3.860435E1,8.073584E2,1.01356476E2,1.4754934E1,5.283984E1,5.1832743E0,5.1108437E0,9.137125E0,2.9831821E1,8.77253E0,1.25326004E2,6.820324E2,8.813749E1,1.3218988E1,5.163471E0,9.591463E0],"tree_param":{"num_deleted":"0","num_feature":"96","num_nodes":"29","size_leaf_vector":"0"}},{"base_weights":[6.5052354E-1,-1.0721973E0,2.1565583E0,-1.4082981E0,5.498127E-1,2.2224023E0,7.862715E-1,-1.4127253E0,-7.17393E-1,1.3755195E0,-1.2865885E0,2.0059073E0,2.3550496E0,1.5774063E0,-1.0921291E0,-1.41714E0,-7.278926E-1,-5.4962844E-1,1.8936455E0,-1.3960208E0,-4.3347093E-1,1.6101841E0,2.1333919E0,2.37918E0,9.523257E-1,1.9267235E0,-1.06481805E-1,-9.9295074E-1,6.5254086E-1,-5.916448E-1,2.088246E0,1.869464E-1,1.9880776E0,1.947799E0,2.3386362E0,8.533434E-1,2.1560202E0],"categories":[],"categories_nodes":[],"categories_segments":[],"categories_sizes":[],"default_left":[true,true,true,true,true,true,true,true,false,true,true,true,true,true,false,false,false,true,true,false,false,true,true,false,false,true,false,false,false,false,false,false,false,false,false,false,false],"id":3,"left_children":[1,3,5,7,9,11,13,15,-1,17,19,21,23,25,-1,-1,-1,27,29,-1,-1,31,33,-1,-1,35,-1,-1,-1,-1,-1,-1,-1,-1,-1,-1,-1],"loss_changes":[4.270741E3,4.1948962E2,7.7483154E1,9.334717E-1,2.0276436E2,1.9321777E1,6.3853058E1,8.775635E-1,0E0,9.273076E1,3.281456E0,1.2953857E1,1.5114014E1,1.7749977E1,0E0,0E0,0E0,1.1449926E1,3.637393E1,0E0,0E0,4.439438E1,4.687134E0,0E0,0E0,4.2529984E0,0E0,0E0,0E0,0E0,0E0,0E0,0E0,0E0,0E0,0E0,0E0],"parents":[2147483647,0,0,1,1,2,2,3,3,4,4,5,5,6,6,7,7,9,9,10,10,11,11,12,12,13,13,17,17,18,18,21,21,22,22,25,25],"right_children":[2,4,6,8,10,12,14,16,-1,18,20,22,24,26,-1,-1,-1,28,30,-1,-1,32,34,-1,-1,36,-1,-1,-1,-1,-1,-1,-1,-1,-1,-1,-1],"split_conditions":[9.97564E-1,4.923934E-4,2.1734573E-2,1.8033185E-3,4.920556E-4,9.9814355E-1,3.984663E-4,5.8090184E-3,-2.869572E-2,3.8643338E-2,2.4726288E-3,4.999159E-3,1.8302089E-2,4.669915E-4,-4.3685164E-2,-5.66856E-2,-2.9115703E-2,9.974309E-1,9.9517643E-1,-5.584083E-2,-1.7338837E-2,9.979155E-1,2.4664456E-7,9.51672E-2,3.8093027E-2,1.8210761E-5,-4.259272E-3,-3.971803E-2,2.6101634E-2,-2.3665793E-2,8.3529845E-2,7.4778562E-3,7.95231E-2,7.791196E-2,9.3545444E-2,3.4133736E-2,8.6240806E-2],"split_indices":[10,27,1,48,4,10,4,55,0,1,30,1,1,15,0,0,0,10,10,0,0,10,55,0,0,27,0,0,0,0,0,0,0,0,0,0,0],"split_type":[0,0,0,0,0,0,0,0,0,0,0,0,0,0,0,0,0,0,0,0,0,0,0,0,0,0,0,0,0,0,0,0,0,0,0,0,0],"sum_hessian":[1.644198E3,7.6706116E2,8.771368E2,6.3550775E2,1.3155342E2,8.3632825E2,4.080854E1,6.304234E2,5.08433E0,9.092259E1,4.063084E1,3.2386566E2,5.124626E2,2.8827408E1,1.1981133E1,6.2532306E2,5.10035E0,1.9268349E1,7.165424E1,3.54475E1,5.1833396E0,8.223424E1,2.4163141E2,5.0311176E2,9.350826E0,2.3755245E1,5.0721617E0,1.4204288E1,5.064061E0,5.0550256E0,6.659921E1,1.7567087E1,6.466715E1,1.3239911E2,1.092323E2,5.012479E0,1.8742767E1],"tree_param":{"num_deleted":"0","num_feature":"96","num_nodes":"37","size_leaf_vector":"0"}},{"base_weights":[6.24808E-1,-1.3840241E0,1.7053276E0,-1.3921756E0,-3.9279008E-1,7.2657967E-1,1.8586477E0,1.327505E0,-2.4581704E-1,1.7799574E0,2.3040986E0,8.791431E-1,2.09993E0,-5.467631E-1,2.0272605E0,2.3045852E0,1.7083923E0,-9.3026686E-1,1.1580199E0,1.0957025E0,2.259344E0,-1.1317271E0,5.1042747E-2,1.405426E0,1.8592753E0],"categories":[],"categories_nodes":[],"categories_segments":[],"categories_sizes":[],"default_left":[true,true,true,false,false,true,true,true,true,true,false,true,true,true,false,false,true,false,false,false,false,false,false,false,false],"id":4,"left_children":[1,3,5,-1,-1,7,9,11,13,15,-1,17,19,21,-1,-1,23,-1,-1,-1,-1,-1,-1,-1,-1],"loss_changes":[3.5689487E3,4.1011963E0,1.590498E2,0E0,0E0,8.5876945E1,2.8269287E1,2.9545883E1,3.993859E1,2.5695068E1,0E0,3.0885368E1,2.7385864E0,1.7862185E1,0E0,0E0,2.9311035E1,0E0,0E0,0E0,0E0,0E0,0E0,0E0,0E0],"parents":[2147483647,0,0,1,1,2,2,5,5,6,6,7,7,8,8,9,9,11,11,12,12,13,13,16,16],"right_children":[2,4,6,-1,-1,8,10,12,14,16,-1,18,20,22,-1,-1,24,-1,-1,-1,-1,-1,-1,-1,-1],"split_conditions":[4.9241784E-4,1.8661652E-3,4.9393345E-4,-5.568702E-2,-1.5711604E-2,4.492991E-4,4.958755E-4,1.8795765E-6,5.3530687E-4,-2.8095693E-8,9.216394E-2,4.9302634E-4,9.3978826E-7,4.9351936E-4,8.109042E-2,9.21834E-2,5.1958665E-7,-3.7210673E-2,4.6320796E-2,4.38281E-2,9.037376E-2,-4.5269083E-2,2.0417098E-3,5.621704E-2,7.437101E-2],"split_indices":[11,48,11,0,0,4,2,38,2,2,0,11,19,4,0,0,21,0,0,0,0,0,0,0,0],"split_type":[0,0,0,0,0,0,0,0,0,0,0,0,0,0,0,0,0,0,0,0,0,0,0,0,0],"sum_hessian":[1.6421482E3,5.7425305E2,1.067895E3,5.69168E2,5.0850234E0,1.4540613E2,9.2248895E2,8.964301E1,5.5763115E1,7.8824E2,1.3424898E2,5.8072437E1,3.1570572E1,4.9914146E1,5.848966E0,9.087252E1,6.9736743E2,7.443262E0,5.0629177E1,5.4036484E0,2.6166922E1,2.4776628E1,2.5137518E1,2.352704E2,4.6209705E2],"tree_param":{"num_deleted":"0","num_feature":"96","num_nodes":"25","size_leaf_vector":"0"}},{"base_weights":[6.008411E-1,-1.035653E0,1.9480243E0,-1.3665022E0,2.71965E-1,2.0088105E0,6.770693E-1,-1.3744042E0,-3.6855024E-1,-6.968427E-1,1.8932765E0,1.8083663E0,2.1317854E0,1.4150332E0,-1.1007645E0,-4.413041E-2,-1.2598717E0,2.0850546E0,-1.0496277E-4,1.4305029E0,1.939334E0,2.1541922E0,8.347204E-1,5.255642E-1,2.1091425E0,-4.855921E-1,2.0203996E0,-1.3589667E0,-5.0945956E-1,1.2839894E0,2.167162E0,2.18462E0,1.0632111E0,1.5444751E0,2.0670884E0,-4.4177943E-1,1.9459367E0],"categories":[],"categories_nodes":[],"categories_segments":[],"categories_sizes":[],"default_left":[true,true,true,true,true,true,true,false,false,true,true,true,true,true,false,true,true,true,false,true,true,false,false,true,false,false,false,false,false,false,false,false,false,false,false,false,false],"id":5,"left_children":[1,3,5,7,9,11,13,-1,-1,15,17,19,21,23,-1,25,27,29,-1,31,33,-1,-1,35,-1,-1,-1,-1,-1,-1,-1,-1,-1,-1,-1,-1,-1],"loss_changes":[3.6169678E3,3.2094672E2,6.814673E1,4.158203E0,2.3765492E2,1.729712E1,5.741365E1,0E0,0E0,3.482485E1,2.0533188E1,1.3699097E1,1.349585E1,1.7736183E1,0E0,4.1987644E1,3.0942917E0,5.94635E-1,0E0,2.2464264E1,9.135437E0,0E0,0E0,2.1072027E1,0E0,0E0,0E0,0E0,0E0,0E0,0E0,0E0,0E0,0E0,0E0,0E0,0E0],"parents":[2147483647,0,0,1,1,2,2,3,3,4,4,5,5,6,6,9,9,10,10,11,11,12,12,13,13,15,15,16,16,17,17,19,19,20,20,23,23],"right_children":[2,4,6,8,10,12,14,-1,-1,16,18,20,22,24,-1,26,28,30,-1,32,34,-1,-1,36,-1,-1,-1,-1,-1,-1,-1,-1,-1,-1,-1,-1,-1],"split_conditions":[9.97564E-1,9.9514794E-1,2.1734573E-2,4.468303E-3,5.0568588E-2,9.9814355E-1,3.984663E-4,-5.4976165E-2,-1.4742009E-2,4.1942013E-4,4.6120473E-4,7.233056E-7,1.8302089E-2,9.091159E-6,-4.403058E-2,3.2884589E-6,2.4910676E-3,-3.8235165E-2,-4.198511E-6,-5.1278353E-6,5.453675E-3,8.6167686E-2,3.3388816E-2,3.7394995E-3,8.43657E-2,-1.9423684E-2,8.081598E-2,-5.435867E-2,-2.0378381E-2,5.1359575E-2,8.668648E-2,8.73848E-2,4.2528443E-2,6.1779004E-2,8.268353E-2,-1.7671177E-2,7.783747E-2],"split_indices":[10,10,1,34,1,10,4,0,0,4,4,21,1,12,0,4,35,94,0,21,1,0,0,55,0,0,0,0,0,0,0,0,0,0,0,0,0],"split_type":[0,0,0,0,0,0,0,0,0,0,0,0,0,0,0,0,0,0,0,0,0,0,0,0,0,0,0,0,0,0,0,0,0,0,0,0,0],"sum_hessian":[1.638688E3,7.400011E2,8.9868695E2,5.905397E2,1.4946143E2,8.57113E2,4.157394E1,5.855261E2,5.013547E0,9.3913826E1,5.5547604E1,3.3187454E2,5.252384E2,2.9523184E1,1.2050756E1,4.3992393E1,4.992143E1,5.0346806E1,5.200798E0,8.8489784E1,2.4338477E2,5.156694E2,9.569025E0,1.3710716E1,1.5812469E1,3.687265E1,7.1197433E0,4.3381733E1,6.5396967E0,6.227479E0,4.4119324E1,2.7362228E1,6.1127556E1,6.2695858E1,1.806889E2,8.565891E0,5.1448245E0],"tree_param":{"num_deleted":"0","num_feature":"96","num_nodes":"37","size_leaf_vector":"0"}},{"base_weights":[5.7997555E-1,2.1419597E0,-1.3691883E0,-1.3756292E0,-3.9522752E-1,-1.3787295E0,-7.9016584E-1],"categories":[],"categories_nodes":[],"categories_segments":[],"categories_sizes":[],"default_left":[true,false,true,true,false,false,false],"id":6,"left_children":[1,-1,3,5,-1,-1,-1],"loss_changes":[4.966814E3,0E0,4.010132E0,2.1875E-1,0E0,0E0,0E0],"parents":[2147483647,0,0,2,2,3,3],"right_children":[2,-1,4,6,-1,-1,-1],"split_conditions":[1.5304392E-2,8.567838E-2,4.95716E-4,4.9533526E-4,-1.58091E-2,-5.514918E-2,-3.1606633E-2],"split_indices":[3,0,21,17,0,0,0],"split_type":[0,0,0,0,0,0,0],"sum_hessian":[1.6294086E3,9.0448804E2,7.249205E2,7.197482E2,5.1722393E0,7.146092E2,5.139078E0],"tree_param":{"num_deleted":"0","num_feature":"96","num_nodes":"7","size_leaf_vector":"0"}},{"base_weights":[5.613391E-1,-1.3247786E0,1.4863834E0,-1.3332967E0,-3.6850914E-1,6.108367E-1,1.6099035E0,1.1352146E0,-3.459512E-1,1.5398134E0,2.0046859E0,1.5325147E0,-1.5823813E-2,-6.7054355E-1,1.349164E0,2.0069165E0,1.4763905E0,1.7955014E0,3.2424107E-2,-7.8862405E-1,7.563684E-1,-1.0724627E0,-9.267363E-2,1.3811177E0,1.8820732E0],"categories":[],"categories_nodes":[],"categories_segments":[],"categories_sizes":[],"default_left":[true,true,true,false,false,true,true,true,true,true,false,true,true,true,false,false,true,false,false,false,false,false,false,false,false],"id":7,"left_children":[1,3,5,-1,-1,7,9,11,13,15,-1,17,19,21,-1,-1,23,-1,-1,-1,-1,-1,-1,-1,-1],"loss_changes":[2.8213623E3,3.8443604E0,1.1632031E2,0E0,0E0,6.8483185E1,2.319873E1,4.022203E1,2.7762907E1,2.1063965E1,0E0,2.572499E1,1.4646957E1,9.5709915E0,0E0,0E0,2.5146484E1,0E0,0E0,0E0,0E0,0E0,0E0,0E0,0E0],"parents":[2147483647,0,0,1,1,2,2,5,5,6,6,7,7,8,8,9,9,11,11,12,12,13,13,16,16],"right_children":[2,4,6,-1,-1,8,10,12,14,16,-1,18,20,22,-1,-1,24,-1,-1,-1,-1,-1,-1,-1,-1],"split_conditions":[4.923934E-4,1.8288905E-3,4.9389014E-4,-5.3331867E-2,-1.4740366E-2,4.3934496E-4,4.958755E-4,4.9184874E-4,4.938384E-4,-3.7987387E-9,8.018743E-2,4.3939953E-4,4.9349904E-4,4.9351936E-4,5.396656E-2,8.027666E-2,1.980624E-3,7.182005E-2,1.2969642E-3,-3.154496E-2,3.0254735E-2,-4.2898506E-2,-3.706945E-3,5.5244707E-2,7.5282924E-2],"split_indices":[11,48,11,0,0,4,2,31,4,2,0,15,11,4,0,0,55,0,0,0,0,0,0,0,0],"split_type":[0,0,0,0,0,0,0,0,0,0,0,0,0,0,0,0,0,0,0,0,0,0,0,0,0],"sum_hessian":[1.6149365E3,5.3127075E2,1.0836656E3,5.261894E2,5.0813937E0,1.3471446E2,9.4895123E2,8.690097E1,4.78135E1,8.100368E2,1.3891444E2,6.4356E1,2.254497E1,4.0636555E1,7.176942E0,9.317421E1,7.1686255E2,5.4588886E1,9.767117E0,1.1257413E1,1.1287556E1,2.3462246E1,1.717431E1,5.8409485E2,1.327677E2],"tree_param":{"num_deleted":"0","num_feature":"96","num_nodes":"25","size_leaf_vector":"0"}},{"base_weights":[5.427718E-1,1.9835753E0,-1.3410472E0,-4.1536087E-1,-1.347427E0,-1.3192674E0,-1.4518077E0,-1.4728135E0,-7.544001E-1],"categories":[],"categories_nodes":[],"categories_segments":[],"categories_sizes":[],"default_left":[true,false,true,false,true,false,true,false,false],"id":8,"left_children":[1,-1,3,-1,5,-1,7,-1,-1],"loss_changes":[4.3563804E3,0E0,3.5491943E0,0E0,1.1450195E-1,0E0,8.923645E-1,0E0,0E0],"parents":[2147483647,0,0,2,2,4,4,6,6],"right_children":[2,-1,4,-1,6,-1,8,-1,-1],"split_conditions":[1.5304392E-2,7.934301E-2,1.583526E-2,-1.6614435E-2,4.93521E-4,-5.2770693E-2,1.23657435E-2,-5.8912538E-2,-3.0176003E-2],"split_indices":[3,0,3,0,11,0,29,0,0],"split_type":[0,0,0,0,0,0,0,0,0],"sum_hessian":[1.6030452E3,9.082977E2,6.9474744E2,5.207837E0,6.8953955E2,5.53781E2,1.3575859E2,1.3070981E2,5.0487795E0],"tree_param":{"num_deleted":"0","num_feature":"96","num_nodes":"9","size_leaf_vector":"0"}},{"base_weights":[5.2728385E-1,1.9085742E0,-1.3222961E0,-4.0268824E-1,-1.3287909E0],"categories":[],"categories_nodes":[],"categories_segments":[],"categories_sizes":[],"default_left":[true,false,true,false,false],"id":9,"left_children":[1,-1,3,-1,-1],"loss_changes":[4.0497788E3,0E0,3.5135498E0,0E0,0E0],"parents":[2147483647,0,0,2,2],"right_children":[2,-1,4,-1,-1],"split_conditions":[1.5304392E-2,7.634297E-2,1.583526E-2,-1.610753E-2,-5.3151634E-2],"split_indices":[3,0,3,0,0],"split_type":[0,0,0,0,0],"sum_hessian":[1.5831726E3,9.0630237E2,6.7687024E2,5.1887217E0,6.716815E2],"tree_param":{"num_deleted":"0","num_feature":"96","num_nodes":"5","size_leaf_vector":"0"}},{"base_weights":[5.133096E-1,1.8418013E0,-1.3048266E0,-1.3118793E0,-3.2605028E-1,-1.3162668E0,-6.328631E-1,-1.4253652E0,-1.2885535E0],"categories":[],"categories_nodes":[],"categories_segments":[],"categories_sizes":[],"default_left":[true,false,true,true,false,true,false,false,false],"id":10,"left_children":[1,-1,3,5,-1,7,-1,-1,-1],"loss_changes":[3.7742637E3,0E0,4.1274414E0,1.1177979E0,0E0,1.2780762E-1,0E0,0E0,0E0],"parents":[2147483647,0,0,2,2,3,3,5,5],"right_children":[2,-1,4,6,-1,8,-1,-1,-1],"split_conditions":[1.5304392E-2,7.367205E-2,4.9575587E-4,4.956191E-4,-1.3042011E-2,5.5657722E-2,-2.5314523E-2,-5.7014607E-2,-5.1542137E-2],"split_indices":[3,0,27,21,0,3,0,0,0],"split_type":[0,0,0,0,0,0,0,0,0],"sum_hessian":[1.5606019E3,9.017155E2,6.588865E2,6.5383484E2,5.0515904E0,6.487047E2,5.130127E0,1.2118929E2,5.2751544E2],"tree_param":{"num_deleted":"0","num_feature":"96","num_nodes":"9","size_leaf_vector":"0"}},{"base_weights":[5.004913E-1,-1.2603952E0,1.2888981E0,-1.2692956E0,-3.7301308E-1,5.8661E-1,1.3988885E0,1.0298507E0,-1.6907117E-1,1.3397495E0,1.7341323E0,1.2473425E0,-4.672275E-2,-4.5518225E-1,1.5814761E0,1.3680617E0,5.847421E-1,1.5853251E0,7.2291803E-1,-1.1919782E0,1.1248E0,-6.7240804E-1,8.976106E-1,1.7372963E0,1.3179201E0,-9.3678445E-1,1.1740254E0],"categories":[],"categories_nodes":[],"categories_segments":[],"categories_sizes":[],"default_left":[true,true,true,false,false,true,true,true,true,true,false,true,true,true,false,true,true,false,false,false,false,false,false,false,false,false,false],"id":11,"left_children":[1,3,5,-1,-1,7,9,11,13,15,-1,17,19,21,-1,23,25,-1,-1,-1,-1,-1,-1,-1,-1,-1,-1],"loss_changes":[2.1353408E3,3.284668E0,8.122168E1,0E0,0E0,4.892314E1,1.5868408E1,2.1570679E1,2.8099222E1,1.5966675E1,0E0,1.2408089E1,2.335172E1,1.4639187E1,0E0,1.16936035E1,2.8084816E1,0E0,0E0,0E0,0E0,0E0,0E0,0E0,0E0,0E0,0E0],"parents":[2147483647,0,0,1,1,2,2,5,5,6,6,7,7,8,8,9,9,11,11,12,12,13,13,15,15,16,16],"right_children":[2,4,6,-1,-1,8,10,12,14,16,-1,18,20,22,-1,24,26,-1,-1,-1,-1,-1,-1,-1,-1,-1,-1],"split_conditions":[4.923934E-4,1.7815193E-3,4.939557E-4,-5.077182E-2,-1.4920522E-2,4.4929155E-4,4.958755E-4,4.493196E-4,5.3531793E-4,3.5572436E-4,6.936529E-2,1.9433681E-3,4.936575E-4,4.938922E-4,6.325904E-2,-2.8095693E-8,4.955685E-4,6.3413E-2,2.891672E-2,-4.7679126E-2,4.4991996E-2,-2.689632E-2,3.5904422E-2,6.9491856E-2,5.2716803E-2,-3.7471376E-2,4.6961017E-2],"split_indices":[11,48,11,0,0,4,2,15,2,33,0,9,15,15,0,2,11,0,0,0,0,0,0,0,0,0,0],"split_type":[0,0,0,0,0,0,0,0,0,0,0,0,0,0,0,0,0,0,0,0,0,0,0,0,0,0,0],"sum_hessian":[1.5359329E3,4.7482492E2,1.0611079E3,4.6968365E2,5.141272E0,1.4454178E2,9.1656616E2,9.087609E1,5.3665688E1,7.833712E2,1.3319498E2,7.547071E1,1.540538E1,4.6762722E1,6.902966E0,7.5427454E2,2.9096699E1,4.466311E1,3.0807602E1,7.781193E0,7.624188E0,4.072605E1,6.0366697E0,8.615974E1,6.681148E2,7.958413E0,2.1138285E1],"tree_param":{"num_deleted":"0","num_feature":"96","num_nodes":"27","size_leaf_vector":"0"}},{"base_weights":[4.8654863E-1,1.7400243E0,-1.2829921E0,-3.961501E-1,-1.2896948E0,-1.2565063E0,-1.3801967E0],"categories":[],"categories_nodes":[],"categories_segments":[],"categories_sizes":[],"default_left":[true,false,true,false,true,false,false],"id":12,"left_children":[1,-1,3,-1,5,-1,-1],"loss_changes":[3.369025E3,0E0,3.2336426E0,0E0,1.4245605E-1,0E0,0E0],"parents":[2147483647,0,0,2,2,4,4],"right_children":[2,-1,4,-1,6,-1,-1],"split_conditions":[1.5304392E-2,6.960097E-2,1.583526E-2,-1.5846005E-2,2.1784637E-2,-5.0260253E-2,-5.5207867E-2],"split_indices":[3,0,3,0,95,0,0],"split_type":[0,0,0,0,0,0,0],"sum_hessian":[1.5168884E3,8.879295E2,6.289589E2,5.168821E0,6.237901E2,4.6730548E2,1.5648463E2],"tree_param":{"num_deleted":"0","num_feature":"96","num_nodes":"7","size_leaf_vector":"0"}},{"base_weights":[4.756632E-1,-1.2371106E0,1.274713E0,-1.2459544E0,-3.4569553E-1,1.5108865E-1,1.4537894E0,8.466887E-1,-9.764882E-1,1.0755103E0,1.5410953E0,1.096918E0,-1.2277259E0,6.322974E-1,-1.1551801E0,-3.23797E-1,1.5166293E0,1.4401623E0,1.6212709E0,1.2833995E0,-8.709148E-1,-1.2251415E0,-4.5453572E-1,-7.843007E-1,1.1294698E-1,1.5724453E0,2.0127979E-1,5.567184E-1,1.5403823E0],"categories":[],"categories_nodes":[],"categories_segments":[],"categories_sizes":[],"default_left":[true,true,true,false,false,true,true,true,true,true,true,true,false,false,true,true,true,true,false,false,false,false,false,false,false,false,false,false,false],"id":13,"left_children":[1,3,5,-1,-1,7,9,11,13,15,17,19,-1,-1,21,23,25,27,-1,-1,-1,-1,-1,-1,-1,-1,-1,-1,-1],"loss_changes":[2.0410396E3,3.3105469E0,2.0434119E2,0E0,0E0,1.1131518E2,2.7298462E1,4.6847996E1,1.6314507E1,1.0401778E2,3.4110107E0,3.0016258E1,0E0,0E0,1.8520813E0,8.339338E0,9.058624E0,2.7765564E1,0E0,0E0,0E0,0E0,0E0,0E0,0E0,0E0,0E0,0E0,0E0],"parents":[2147483647,0,0,1,1,2,2,5,5,6,6,7,7,8,8,9,9,10,10,11,11,14,14,15,15,16,16,17,17],"right_children":[2,4,6,-1,-1,8,10,12,14,16,18,20,-1,-1,22,24,26,28,-1,-1,-1,-1,-1,-1,-1,-1,-1,-1,-1],"split_conditions":[9.9514794E-1,4.327257E-3,9.97564E-1,-4.9838174E-2,-1.382782E-2,4.9313635E-4,9.9791634E-1,2.463396E-4,2.7179016E-2,4.1161023E-2,9.982285E-1,4.9344555E-4,-4.9109034E-2,2.5291895E-2,9.899063E-4,-3.829755E-2,2.4694394E-4,3.3156767E-2,6.485084E-2,5.1335976E-2,-3.483659E-2,-4.900566E-2,-1.8181428E-2,-3.1372026E-2,4.517879E-3,6.289781E-2,8.051191E-3,2.2268737E-2,6.161529E-2],"split_indices":[10,34,10,0,0,31,10,24,0,0,10,25,0,0,31,94,24,0,0,0,0,0,0,0,0,0,0,0,0],"split_type":[0,0,0,0,0,0,0,0,0,0,0,0,0,0,0,0,0,0,0,0,0,0,0,0,0,0,0,0,0],"sum_hessian":[1.4891907E3,4.7356015E2,1.0156305E3,4.6851422E2,5.0459204E0,1.3986754E2,8.7576294E2,8.6657684E1,5.3209854E1,1.667195E2,7.0904346E2,7.775017E1,8.907512E0,5.0655556E0,4.81443E1,4.0023582E1,1.2669591E2,3.2228363E2,3.8675983E2,7.133767E1,6.4125E0,4.309277E1,5.051529E0,1.9094507E1,2.0929077E1,1.21351E2,5.344908E0,3.3503498E1,2.8878015E2],"tree_param":{"num_deleted":"0","num_feature":"96","num_nodes":"29","size_leaf_vector":"0"}},{"base_weights":[4.6443796E-1,1.149241E0,-1.1549696E0,1.2526157E0,8.1509143E-1,-1.1987685E0,1.3164959E0,1.1921457E0,1.6040617E0,5.669834E-1,1.3558792E0,-1.2256824E0,8.90669E-1,1.3342576E0,7.7779496E-1,3.1703392E-1,1.3373584E0,1.070543E0,1.6081126E0,-1.2316884E0,-6.0810184E-1,1.2406143E0,1.6404927E0,-6.707505E-2,8.79306E-1,-2.9723772E-1,8.567992E-1,5.492035E-1,1.5989168E0,1.1743683E0,3.3065298E-1],"categories":[],"categories_nodes":[],"categories_segments":[],"categories_sizes":[],"default_left":[true,true,true,true,true,true,false,true,false,true,true,true,false,true,true,true,true,true,false,false,false,false,false,false,false,false,false,false,false,false,false],"id":14,"left_children":[1,3,5,7,9,11,-1,13,-1,15,17,19,-1,21,23,25,27,29,-1,-1,-1,-1,-1,-1,-1,-1,-1,-1,-1,-1,-1],"loss_changes":[1.6260687E3,3.45636E1,4.8765015E1,1.4768433E1,3.227321E1,2.5207886E1,0E0,3.8625E1,0E0,3.2412685E1,3.8008728E0,8.230591E-1,0E0,1.2307678E1,1.5017693E1,4.338003E1,7.669716E0,2.607216E0,0E0,0E0,0E0,0E0,0E0,0E0,0E0,0E0,0E0,0E0,0E0,0E0,0E0],"parents":[2147483647,0,0,1,1,2,2,3,3,4,4,5,5,7,7,9,9,10,10,11,11,13,13,14,14,15,15,16,16,17,17],"right_children":[2,4,6,8,10,12,-1,14,-1,16,18,20,-1,22,24,26,28,30,-1,-1,-1,-1,-1,-1,-1,-1,-1,-1,-1,-1,-1],"split_conditions":[-3.8091116E-2,-3.8266115E-2,4.939287E-4,4.9586984E-4,4.940191E-4,4.934212E-4,5.2659836E-2,4.7759444E-4,6.416247E-2,1.8795765E-6,4.94459E-4,1.7623466E-2,3.5626758E-2,4.6577618E-8,4.941155E-4,4.937432E-4,4.6261307E-6,1.4125999E-3,6.43245E-2,-4.9267534E-2,-2.4324073E-2,4.962457E-2,6.561971E-2,-2.683002E-3,3.517224E-2,-1.1889509E-2,3.4271967E-2,2.196814E-2,6.395667E-2,4.697473E-2,1.3226119E-2],"split_indices":[94,94,20,20,27,4,0,20,0,38,27,29,0,20,20,22,22,55,0,0,0,0,0,0,0,0,0,0,0,0,0],"split_type":[0,0,0,0,0,0,0,0,0,0,0,0,0,0,0,0,0,0,0,0,0,0,0,0,0,0,0,0,0,0,0],"sum_hessian":[1.4640836E3,1.0291674E3,4.349163E2,7.839048E2,2.452625E2,4.27849E2,7.0673075E0,6.7257367E2,1.1133115E2,1.6953154E2,7.573095E1,4.2281613E2,5.0328655E0,4.9915576E2,1.7341792E2,1.2906705E2,4.0464493E1,3.799443E1,3.7736515E1,4.1775897E2,5.0571523E0,3.8613205E2,1.13023705E2,1.86376E1,1.5478032E2,6.05773E1,6.848975E1,1.0854952E1,2.960954E1,3.2803986E1,5.190446E0],"tree_param":{"num_deleted":"0","num_feature":"96","num_nodes":"31","size_leaf_vector":"0"}},{"base_weights":[4.5249358E-1,1.619472E0,-1.2560956E0,-1.2631075E0,-3.8747838E-1,-1.2239097E0,-1.382835E0],"categories":[],"categories_nodes":[],"categories_segments":[],"categories_sizes":[],"default_left":[true,false,true,true,false,false,false],"id":15,"left_children":[1,-1,3,5,-1,-1,-1],"loss_changes":[2.8820005E3,0E0,3.0841064E0,1.0370483E0,0E0,0E0,0E0],"parents":[2147483647,0,0,2,2,3,3],"right_children":[2,-1,4,6,-1,-1,-1],"split_conditions":[1.5304392E-2,6.477888E-2,4.9575587E-4,9.952127E-1,-1.5499135E-2,-4.8956387E-2,-5.53134E-2],"split_indices":[3,0,27,10,0,0,0],"split_type":[0,0,0,0,0,0,0],"sum_hessian":[1.443398E3,8.576614E2,5.8573663E2,5.8059564E2,5.140954E0,4.4585043E2,1.3474522E2],"tree_param":{"num_deleted":"0","num_feature":"96","num_nodes":"7","size_leaf_vector":"0"}},{"base_weights":[4.4377574E-1,1.5806217E0,-1.2424723E0,-4.142946E-1,-1.2493442E0,-1.2137371E0,-1.3641133E0,-1.3869072E0,-6.8062645E-1],"categories":[],"categories_nodes":[],"categories_segments":[],"categories_sizes":[],"default_left":[true,false,true,false,true,false,true,false,false],"id":16,"left_children":[1,-1,3,-1,5,-1,7,-1,-1],"loss_changes":[2.7121738E3,0E0,2.725708E0,0E0,6.520386E-1,0E0,1.0134277E0,0E0,0E0],"parents":[2147483647,0,0,2,2,4,4,6,6],"right_children":[2,-1,4,-1,6,-1,8,-1,-1],"split_conditions":[1.5304392E-2,6.322487E-2,1.583526E-2,-1.6571784E-2,4.93521E-4,-4.8549484E-2,1.187031E-2,-5.547629E-2,-2.7225057E-2],"split_indices":[3,0,3,0,11,0,29,0,0],"split_type":[0,0,0,0,0,0,0,0,0],"sum_hessian":[1.4127736E3,8.4389404E2,5.6887946E2,5.1858864E0,5.636936E2,4.390526E2,1.24640976E2,1.1962248E2,5.0184984E0],"tree_param":{"num_deleted":"0","num_feature":"96","num_nodes":"9","size_leaf_vector":"0"}},{"base_weights":[4.3567535E-1,1.545043E0,-1.2296224E0,-1.2371871E0,-3.4248644E-1,-1.2060437E0,-1.3609394E0],"categories":[],"categories_nodes":[],"categories_segments":[],"categories_sizes":[],"default_left":[true,false,true,true,false,false,false],"id":17,"left_children":[1,-1,3,5,-1,-1,-1],"loss_changes":[2.5557324E3,0E0,3.2891846E0,4.7143555E-1,0E0,0E0,0E0],"parents":[2147483647,0,0,2,2,3,3],"right_children":[2,-1,4,6,-1,-1,-1],"split_conditions":[1.5304392E-2,6.1801717E-2,4.9575587E-4,4.939649E-4,-1.3699457E-2,-4.824175E-2,-5.4437574E-2],"split_indices":[3,0,27,11,0,0,0],"split_type":[0,0,0,0,0,0,0],"sum_hessian":[1.3813724E3,8.29115E2,5.5225745E2,5.471968E2,5.060669E0,4.4576205E2,1.0143472E2],"tree_param":{"num_deleted":"0","num_feature":"96","num_nodes":"7","size_leaf_vector":"0"}},{"base_weights":[4.2817685E-1,-1.1831492E0,1.1230104E0,-1.1926955E0,-3.5539076E-1,1.07433744E-1,1.284683E0,7.356182E-1,-9.2671525E-1,9.792656E-1,1.3800168E0,-7.40914E-1,1.2494906E0,-1.2221385E0,5.8851343E-2,4.5228025E-1,1.1396204E0,1.2855695E0,1.4448227E0,-1.234047E0,6.0124487E-1,-2.80022E-1,1.3959236E0,1.0063143E0,-7.177062E-1,1.4051303E0,1.5454409E-1,1.2040613E0,-2.6422141E-2,1.3136994E0,8.321393E-1],"categories":[],"categories_nodes":[],"categories_segments":[],"categories_sizes":[],"default_left":[true,true,true,false,false,true,true,true,true,true,true,true,true,false,true,true,true,true,false,false,false,false,false,false,false,false,false,false,false,false,false],"id":18,"left_children":[1,3,5,-1,-1,7,9,11,13,15,17,19,21,-1,23,25,27,29,-1,-1,-1,-1,-1,-1,-1,-1,-1,-1,-1,-1,-1],"loss_changes":[1.5132013E3,2.794983E0,1.5486145E2,0E0,0E0,8.561146E1,2.235791E1,6.305836E1,1.4585087E1,1.6144867E1,1.9260254E0,1.515021E1,1.4079773E1,0E0,9.882166E0,1.3301957E1,1.1340424E1,2.2309265E0,0E0,0E0,0E0,0E0,0E0,0E0,0E0,0E0,0E0,0E0,0E0,0E0,0E0],"parents":[2147483647,0,0,1,1,2,2,5,5,6,6,7,7,8,8,9,9,10,10,11,11,12,12,14,14,15,15,16,16,17,17],"right_children":[2,4,6,-1,-1,8,10,12,14,16,18,20,22,-1,24,26,28,30,-1,-1,-1,-1,-1,-1,-1,-1,-1,-1,-1,-1,-1],"split_conditions":[9.9514794E-1,3.937322E-3,9.97564E-1,-4.770782E-2,-1.421563E-2,4.9313635E-4,9.9797004E-1,4.6261307E-6,7.390222E-5,7.233056E-7,9.982285E-1,2.18439E-3,4.924749E-4,-4.888554E-2,1.2346171E-3,-2.7026317E-6,4.954714E-4,4.898283E-4,5.7792906E-2,-4.936188E-2,2.4049794E-2,-1.120088E-2,5.5836942E-2,4.025257E-2,-2.8708247E-2,5.620521E-2,6.1817635E-3,4.816245E-2,-1.0568856E-3,5.2547973E-2,3.3285573E-2],"split_indices":[10,34,10,0,0,31,10,22,17,21,10,34,27,0,9,21,11,17,0,0,0,0,0,0,0,0,0,0,0,0,0],"split_type":[0,0,0,0,0,0,0,0,0,0,0,0,0,0,0,0,0,0,0,0,0,0,0,0,0,0,0,0,0,0,0],"sum_hessian":[1.3493646E3,4.0634457E2,9.430201E2,4.0127594E2,5.068636E0,1.297343E2,8.1328577E2,8.088818E1,4.884612E1,1.9615231E2,6.171335E2,2.0769228E1,6.0118958E1,3.7396496E1,1.1449623E1,4.6653194E1,1.4949911E2,2.5961334E2,3.575201E2,1.5247556E1,5.5216722E0,5.1730866E0,5.494587E1,5.0240326E0,6.425591E0,1.0221566E1,3.643163E1,1.4163892E2,7.8602095E0,2.4266187E2,1.6951471E1],"tree_param":{"num_deleted":"0","num_feature":"96","num_nodes":"31","size_leaf_vector":"0"}},{"base_weights":[4.197449E-1,1.4865786E0,-1.2120152E0,-1.2196636E0,-3.6179826E-1,-1.1915295E0,-1.3580891E0,-6.3856655E-1,-1.1964368E0],"categories":[],"categories_nodes":[],"categories_segments":[],"categories_sizes":[],"default_left":[true,false,true,true,false,true,false,false,false],"id":19,"left_children":[1,-1,3,5,-1,7,-1,-1,-1],"loss_changes":[2.3046326E3,0E0,2.9630737E0,4.0075684E-1,0E0,4.272461E-1,0E0,0E0,0E0],"parents":[2147483647,0,0,2,2,3,3,5,5],"right_children":[2,-1,4,6,-1,8,-1,-1,-1],"split_conditions":[1.5304392E-2,5.9463143E-2,4.9575587E-4,4.9380155E-4,-1.44719295E-2,1.7840976E-2,-5.432356E-2,-2.5542662E-2,-4.785747E-2],"split_indices":[3,0,27,22,0,3,0,0,0],"split_type":[0,0,0,0,0,0,0,0,0],"sum_hessian":[1.3218452E3,7.993346E2,5.2251056E2,5.174213E2,5.089243E0,4.3800668E2,7.941465E1,5.006322E0,4.3300037E2],"tree_param":{"num_deleted":"0","num_feature":"96","num_nodes":"9","size_leaf_vector":"0"}},{"base_weights":[4.1318393E-1,1.4584669E0,-1.2009236E0,-3.749055E-1,-1.2085807E0,-1.1850604E0,-1.3643678E0],"categories":[],"categories_nodes":[],"categories_segments":[],"categories_sizes":[],"default_left":[true,false,true,false,true,false,false],"id":20,"left_children":[1,-1,3,-1,5,-1,-1],"loss_changes":[2.178513E3,0E0,2.7577515E0,0E0,2.2454834E-1,0E0,0E0],"parents":[2147483647,0,0,2,2,4,4],"right_children":[2,-1,4,-1,6,-1,-1],"split_conditions":[1.5304392E-2,5.8338676E-2,1.583526E-2,-1.4996219E-2,9.975811E-1,-4.7402415E-2,-5.4574713E-2],"split_indices":[3,0,3,0,10,0,0],"split_type":[0,0,0,0,0,0,0],"sum_hessian":[1.2891628E3,7.825113E2,5.0665152E2,5.1123533E0,5.0153915E2,4.4322858E2,5.8310593E1],"tree_param":{"num_deleted":"0","num_feature":"96","num_nodes":"7","size_leaf_vector":"0"}},{"base_weights":[4.0706226E-1,1.4324542E0,-1.1902376E0,-1.1985687E0,-3.1597635E-1],"categories":[],"categories_nodes":[],"categories_segments":[],"categories_sizes":[],"default_left":[true,false,true,false,false],"id":21,"left_children":[1,-1,3,-1,-1],"loss_changes":[2.0610708E3,0E0,3.2056885E0,0E0,0E0],"parents":[2147483647,0,0,2,2],"right_children":[2,-1,4,-1,-1],"split_conditions":[1.5304392E-2,5.729817E-2,4.9575587E-4,-4.7942746E-2,-1.2639054E-2],"split_indices":[3,0,27,0,0],"split_type":[0,0,0,0,0],"sum_hessian":[1.2563527E3,7.652202E2,4.9113245E2,4.8612906E2,5.0033727E0],"tree_param":{"num_deleted":"0","num_feature":"96","num_nodes":"5","size_leaf_vector":"0"}},{"base_weights":[4.0141222E-1,-1.1481994E0,1.037738E0,-1.1583903E0,-3.640176E-1,9.914385E-2,1.1857252E0,5.3286886E-1,-1.0604156E0,8.9723057E-1,1.276541E0,-4.7538634E-2,1.2264153E0,-1.1923218E0,-2.7245402E-1,1.0507088E0,3.6838847E-1,1.1837788E0,1.340636E0,-6.485173E-1,1.2400851E0,1.3674146E0,2.851008E-1,1.115359E0,-5.1214814E-1,1.5230918E-2,1.2594032E0,1.2106863E0,7.544388E-1],"categories":[],"categories_nodes":[],"categories_segments":[],"categories_sizes":[],"default_left":[true,true,true,false,false,true,true,true,true,true,true,true,true,false,false,true,true,true,false,false,false,false,false,false,false,false,false,false,false],"id":22,"left_children":[1,3,5,-1,-1,7,9,11,13,15,17,19,21,-1,-1,23,25,27,-1,-1,-1,-1,-1,-1,-1,-1,-1,-1,-1],"loss_changes":[1.2084971E3,2.43042E0,1.20515015E2,0E0,0E0,6.0602283E1,1.8507446E1,3.529828E1,3.0874786E0,1.4462997E1,1.7908936E0,3.8429688E1,4.908787E0,0E0,0E0,1.4844543E1,1.34153E1,1.8673706E0,0E0,0E0,0E0,0E0,0E0,0E0,0E0,0E0,0E0,0E0,0E0],"parents":[2147483647,0,0,1,1,2,2,5,5,6,6,7,7,8,8,9,9,10,10,11,11,12,12,15,15,16,16,17,17],"right_children":[2,4,6,-1,-1,8,10,12,14,16,18,20,22,-1,-1,24,26,28,-1,-1,-1,-1,-1,-1,-1,-1,-1,-1,-1],"split_conditions":[9.9514794E-1,3.8639258E-3,9.97564E-1,-4.633561E-2,-1.4560704E-2,2.463396E-4,9.9797004E-1,1.2704088E-6,4.937964E-4,4.938371E-4,9.982285E-1,2.5443481E-3,4.9343216E-4,-4.769287E-2,-1.0898161E-2,4.7969725E-4,4.9586094E-4,4.898283E-4,5.362544E-2,-2.5940692E-2,4.9603403E-2,5.4696582E-2,1.1404031E-2,4.4614356E-2,-2.0485925E-2,6.092367E-4,5.037613E-2,4.842745E-2,3.0177552E-2],"split_indices":[10,34,10,0,0,2,10,17,17,20,10,34,17,0,0,5,20,17,0,0,0,0,0,0,0,0,0,0,0],"split_type":[0,0,0,0,0,0,0,0,0,0,0,0,0,0,0,0,0,0,0,0,0,0,0,0,0,0,0,0,0],"sum_hessian":[1.2233761E3,3.5589026E2,8.674859E2,3.5085355E2,5.0367165E0,1.18374916E2,7.4911096E2,8.654414E1,3.1830769E1,1.8195964E2,5.671513E2,4.762212E1,3.8922024E1,2.6826754E1,5.004016E0,1.4026558E2,4.1694065E1,2.3970479E2,3.2744653E2,3.2806522E1,1.4815597E1,3.3457733E1,5.464292E0,1.349687E2,5.2968683E0,3.0587622E1,1.1106442E1,2.2385542E2,1.584937E1],"tree_param":{"num_deleted":"0","num_feature":"96","num_nodes":"29","size_leaf_vector":"0"}},{"base_weights":[3.9439747E-1,1.3894993E0,-1.176427E0,-1.1848993E0,-3.3650082E-1,-1.190743E0,-5.5552787E-1,-1.1541117E0,-1.3160274E0],"categories":[],"categories_nodes":[],"categories_segments":[],"categories_sizes":[],"default_left":[true,false,true,true,false,true,false,false,false],"id":23,"left_children":[1,-1,3,5,-1,7,-1,-1,-1],"loss_changes":[1.8726208E3,0E0,2.9084473E0,1.0291748E0,0E0,5.6744385E-1,0E0,0E0,0E0],"parents":[2147483647,0,0,2,2,3,3,5,5],"right_children":[2,-1,4,6,-1,8,-1,-1,-1],"split_conditions":[1.5304392E-2,5.557997E-2,4.9575587E-4,4.956012E-4,-1.3460033E-2,4.9380155E-4,-2.2221114E-2,-4.6164468E-2,-5.2641094E-2],"split_indices":[3,0,27,21,0,11,0,0,0],"split_type":[0,0,0,0,0,0,0,0,0],"sum_hessian":[1.1959482E3,7.3221356E2,4.6373468E2,4.5869708E2,5.0376215E0,4.5359357E2,5.103501E0,3.5887567E2,9.47179E1],"tree_param":{"num_deleted":"0","num_feature":"96","num_nodes":"9","size_leaf_vector":"0"}},{"base_weights":[3.8930333E-1,1.368397E0,-1.1670082E0,-3.318475E-1,-1.1756864E0,-1.1816123E0,-7.416351E-1,-1.2872008E0,-1.1465919E0],"categories":[],"categories_nodes":[],"categories_segments":[],"categories_sizes":[],"default_left":[true,false,true,false,true,true,false,false,false],"id":24,"left_children":[1,-1,3,-1,5,7,-1,-1,-1],"loss_changes":[1.7757318E3,0E0,2.8724976E0,0E0,2.6861572E-1,1.4172363E-1,0E0,0E0,0E0],"parents":[2147483647,0,0,2,2,4,4,5,5],"right_children":[2,-1,4,-1,6,8,-1,-1,-1],"split_conditions":[1.5304392E-2,5.473588E-2,1.583526E-2,-1.3273899E-2,1.646398E-2,5.5533074E-2,-2.9665403E-2,-5.148803E-2,-4.5863677E-2],"split_indices":[3,0,3,0,29,3,0,0,0],"split_type":[0,0,0,0,0,0,0,0,0],"sum_hessian":[1.1633026E3,7.141459E2,4.4915674E2,5.0227613E0,4.4413397E2,4.3645303E2,7.6809373E0,9.97984E1,3.3665463E2],"tree_param":{"num_deleted":"0","num_feature":"96","num_nodes":"9","size_leaf_vector":"0"}},{"base_weights":[3.844983E-1,-1.1264699E0,9.855448E-1,-1.1373497E0,-3.6826944E-1,3.4529167E-1,1.1800641E0,7.3983884E-1,-3.510457E-1,1.0365521E0,1.252217E0,3.0249605E-1,1.3293121E0,-1.026416E0,5.470876E-1,8.1113994E-1,1.1251528E0,7.326248E-1,-1.0280899E-1,-1.0839245E0,-5.325544E-1,-5.836031E-1,8.70876E-1,1.2804601E0,5.82297E-1,1.1651937E0,6.8837565E-1],"categories":[],"categories_nodes":[],"categories_segments":[],"categories_sizes":[],"default_left":[true,true,true,false,false,true,true,true,true,true,false,true,false,true,true,true,true,false,false,false,false,false,false,false,false,false,false],"id":25,"left_children":[1,3,5,-1,-1,7,9,11,13,15,-1,17,-1,19,21,23,25,-1,-1,-1,-1,-1,-1,-1,-1,-1,-1],"loss_changes":[1.0290581E3,2.242218E0,1.0051001E2,0E0,0E0,5.252397E1,5.1331787E0,3.098581E1,4.270681E1,3.3531952E0,0E0,1.24860935E1,0E0,5.5898666E-1,1.1665119E1,6.11195E0,1.8342438E0,0E0,0E0,0E0,0E0,0E0,0E0,0E0,0E0,0E0,0E0],"parents":[2147483647,0,0,1,1,2,2,5,5,6,6,7,7,8,8,9,9,11,11,13,13,14,14,15,15,16,16],"right_children":[2,4,6,-1,-1,8,10,12,14,16,-1,18,-1,20,22,24,26,-1,-1,-1,-1,-1,-1,-1,-1,-1,-1],"split_conditions":[9.9514794E-1,1.3989239E-3,9.97807E-1,-4.5493986E-2,-1.4730778E-2,4.9214775E-4,9.9814355E-1,3.2884589E-6,9.9762994E-1,7.233056E-7,5.008868E-2,4.9383077E-4,5.3172484E-2,4.950018E-4,4.940301E-4,-2.7026317E-6,4.952676E-4,2.9304992E-2,-4.1123596E-3,-4.335698E-2,-2.1302175E-2,-2.3344124E-2,3.483504E-2,5.1218405E-2,2.329188E-2,4.6607748E-2,2.7535025E-2],"split_indices":[10,48,10,0,0,4,10,4,10,21,0,11,0,2,21,21,22,0,0,0,0,0,0,0,0,0,0],"split_type":[0,0,0,0,0,0,0,0,0,0,0,0,0,0,0,0,0,0,0,0,0,0,0,0,0,0,0],"sum_hessian":[1.1308993E3,3.2158755E2,8.0931177E2,3.1654517E2,5.042391E0,1.8923311E2,6.200787E2,1.2075209E2,6.848102E1,2.1259454E2,4.074841E2,7.018988E1,5.0562202E1,3.900646E1,2.947456E1,6.2850235E1,1.4974431E2,3.3660347E1,3.6529533E1,3.386786E1,5.138599E0,6.382839E0,2.309172E1,1.9094698E1,4.375554E1,1.3564188E2,1.4102432E1],"tree_param":{"num_deleted":"0","num_feature":"96","num_nodes":"27","size_leaf_vector":"0"}},{"base_weights":[3.781773E-1,-1.1197339E0,9.654899E-1,-1.130941E0,-3.6713538E-1,3.3664024E-1,1.1577258E0,1.1055484E-1,1.1844351E0,1.204522E0,2.5274175E-1,-4.5832327E-1,9.661016E-1,5.89064E-1,1.2651198E0,1.0994674E0,1.2526611E0,-6.0704315E-1,9.7501504E-1,-5.96914E-1,1.1895653E0,-8.0104536E-1,1.2148682E0,-6.327126E-1,1.1707634E0,1.2625346E0,6.8016154E-1,-1.2095252E-1,-9.045303E-1,1.2414062E0,2.8975245E-1],"categories":[],"categories_nodes":[],"categories_segments":[],"categories_sizes":[],"default_left":[true,true,true,false,false,true,true,true,true,true,true,true,true,false,false,true,true,true,true,false,false,false,false,false,false,false,false,false,false,false,false],"id":26,"left_children":[1,3,5,-1,-1,7,9,11,13,15,17,19,21,-1,-1,23,25,27,29,-1,-1,-1,-1,-1,-1,-1,-1,-1,-1,-1,-1],"loss_changes":[9.735978E2,2.2148132E0,9.5671875E1,0E0,0E0,3.5799038E1,2.5452026E1,7.300597E1,1.1455994E0,1.5458984E0,1.9947268E1,2.1316204E1,2.7290283E1,0E0,0E0,2.418187E1,1.3413086E0,2.0373816E0,2.802452E0,0E0,0E0,0E0,0E0,0E0,0E0,0E0,0E0,0E0,0E0,0E0,0E0],"parents":[2147483647,0,0,1,1,2,2,5,5,6,6,7,7,8,8,9,9,10,10,11,11,12,12,15,15,16,16,17,17,18,18],"right_children":[2,4,6,-1,-1,8,10,12,14,16,18,20,22,-1,-1,24,26,28,30,-1,-1,-1,-1,-1,-1,-1,-1,-1,-1,-1,-1],"split_conditions":[9.9514794E-1,3.846449E-3,9.97807E-1,-4.523764E-2,-1.4685415E-2,5.3839944E-2,1.9246068E-2,4.3144695E-2,5.7264045E-2,9.9814355E-1,9.091159E-6,1.2470471E-3,9.9756384E-1,2.356256E-2,5.060479E-2,3.376477E-2,1.7304735E-2,9.979208E-1,4.3090008E-4,-2.3876559E-2,4.758261E-2,-3.2041814E-2,4.8594728E-2,-2.5308503E-2,4.6830535E-2,5.0501384E-2,2.720646E-2,-4.8381006E-3,-3.618121E-2,4.9656246E-2,1.1590098E-2],"split_indices":[10,34,10,0,0,1,1,0,1,10,5,63,10,0,0,0,1,10,5,0,0,0,0,0,0,0,0,0,0,0,0],"split_type":[0,0,0,0,0,0,0,0,0,0,0,0,0,0,0,0,0,0,0,0,0,0,0,0,0,0,0,0,0,0,0],"sum_hessian":[1.1044564E3,3.108198E2,7.9363666E2,3.0576385E2,5.0559273E0,1.8645355E2,6.071831E2,1.4809166E2,3.836189E1,5.7701495E2,3.0168118E1,8.9226585E1,5.8865074E1,5.5690117E0,3.2792877E1,1.8881046E2,3.8820453E2,1.3845797E1,1.632232E1,8.28929E1,6.3336873E0,6.990074E0,5.1875E1,7.1528583E0,1.8165761E2,3.8043808E2,7.7664304E0,5.7906013E0,8.055196E0,1.1168906E1,5.1534147E0],"tree_param":{"num_deleted":"0","num_feature":"96","num_nodes":"31","size_leaf_vector":"0"}},{"base_weights":[3.7246594E-1,1.3189961E0,-1.1514972E0,-1.1606394E0,-3.383131E-1,-1.1650747E0,-6.754305E-1,-1.1287917E0,-1.2880778E0],"categories":[],"categories_nodes":[],"categories_segments":[],"categories_sizes":[],"default_left":[true,false,true,true,false,true,false,false,false],"id":27,"left_children":[1,-1,3,5,-1,7,-1,-1,-1],"loss_changes":[1.556998E3,0E0,2.6827393E0,9.259033E-2,0E0,3.47229E-1,0E0,0E0,0E0],"parents":[2147483647,0,0,2,2,3,3,5,5],"right_children":[2,-1,4,6,-1,8,-1,-1,-1],"split_conditions":[1.5304392E-2,5.275984E-2,4.9575587E-4,5.708912E-4,-1.3532524E-2,4.9399416E-4,-2.7017219E-2,-4.5151666E-2,-5.152311E-2],"split_indices":[3,0,27,43,0,11,0,0,0],"split_type":[0,0,0,0,0,0,0,0,0],"sum_hessian":[1.0773389E3,6.646566E2,4.1268228E2,4.0767175E2,5.0105343E0,4.0259055E2,5.0811963E0,3.1874527E2,8.38453E1],"tree_param":{"num_deleted":"0","num_feature":"96","num_nodes":"9","size_leaf_vector":"0"}},{"base_weights":[3.6837944E-1,-1.1073638E0,9.3547696E-1,-1.1192459E0,-3.6265343E-1,3.258107E-1,1.1229986E0,-7.1419764E-1,7.470169E-1,9.771482E-1,1.197458E0,-1.0021987E0,1.976941E-1,-3.2684427E-2,9.960462E-1,1.0657595E0,6.271579E-1,-4.0732554E-1,-1.150334E0,1.123786E0,-8.9350814E-1,-8.592965E-1,1.083456E0,5.208804E-1,1.1529847E0,1.0968207E0,2.1878313E-1,3.5330838E-1,1.1795821E0],"categories":[],"categories_nodes":[],"categories_segments":[],"categories_sizes":[],"default_left":[true,true,true,false,false,true,true,true,true,true,false,true,true,true,true,true,true,false,false,false,false,false,false,false,false,false,false,false,false],"id":28,"left_children":[1,3,5,-1,-1,7,9,11,13,15,-1,17,19,21,23,25,27,-1,-1,-1,-1,-1,-1,-1,-1,-1,-1,-1,-1],"loss_changes":[8.771982E2,2.1698303E0,8.616016E1,0E0,0E0,7.9138214E1,5.111267E0,1.3916618E1,2.492556E1,5.56279E0,0E0,3.0442276E0,1.4518264E1,3.0457392E1,6.647835E0,3.9403534E0,6.091688E0,0E0,0E0,0E0,0E0,0E0,0E0,0E0,0E0,0E0,0E0,0E0,0E0],"parents":[2147483647,0,0,1,1,2,2,5,5,6,6,7,7,8,8,9,9,11,11,12,12,13,13,14,14,15,15,16,16],"right_children":[2,4,6,-1,-1,8,10,12,14,16,-1,18,20,22,24,26,28,-1,-1,-1,-1,-1,-1,-1,-1,-1,-1,-1,-1],"split_conditions":[9.9514794E-1,1.7237533E-2,9.97807E-1,-4.4769835E-2,-1.4506137E-2,3.998769E-3,9.9814355E-1,3.3361324E-5,3.6241806E-6,4.9379264E-4,4.789832E-2,2.44558E-3,4.9318577E-4,4.458473E-3,7.992233E-6,4.9382093E-4,4.9592886E-4,-1.629302E-2,-4.601336E-2,4.495144E-2,-3.5740323E-2,-3.437186E-2,4.333824E-2,2.0835215E-2,4.611939E-2,4.3872826E-2,8.751324E-3,1.4132335E-2,4.7183283E-2],"split_indices":[10,29,10,0,0,29,10,17,27,28,0,29,17,55,30,5,28,0,0,0,0,0,0,0,0,0,0,0,0],"split_type":[0,0,0,0,0,0,0,0,0,0,0,0,0,0,0,0,0,0,0,0,0,0,0,0,0,0,0,0,0],"sum_hessian":[1.0459259E3,2.900871E2,7.5583887E2,2.8503635E2,5.0507493E0,1.7843906E2,5.773998E2,5.1235897E1,1.27203156E2,1.9992062E2,3.774792E2,3.8862877E1,1.237302E1,3.1002922E1,9.620023E1,1.5789842E2,4.2022194E1,8.495768E0,3.036711E1,6.676708E0,5.696312E0,1.794385E1,1.30590725E1,2.4956871E1,7.124336E1,1.520281E2,5.870319E0,2.9191067E1,1.2831128E1],"tree_param":{"num_deleted":"0","num_feature":"96","num_nodes":"29","size_leaf_vector":"0"}},{"base_weights":[3.6279637E-1,-1.0297763E-1,8.9478433E-1,-6.281598E-1,8.1305605E-1,6.500599E-1,1.0250505E0,-9.6588653E-1,1.1142157E0,4.5929876E-1,9.820201E-1,5.1997167E-1,1.2303522E0,9.059633E-1,1.1341221E0,-1.0186152E0,9.4702035E-1,3.4546283E-1,1.1889913E0,-1.2944236E-1,9.3980396E-1,1.0221065E0,5.0490755E-1,4.2434195E-1,1.2004269E0,3.9708564E-1,9.800901E-1,9.1486675E-1,1.1945436E0,-1.0440873E0,3.2499412E-1,-6.3002616E-1,8.3876306E-1,1.0701334E-1,1.2451476E0,9.2846555E-1,1.1953124E0,-4.315378E-2,1.0708275E0,2.8770787E-1,9.370452E-1,1.3978761E-1,6.8422425E-1,1.2298089E0,9.130924E-1,1.2736971E0,7.346985E-1],"categories":[],"categories_nodes":[],"categories_segments":[],"categories_sizes":[],"default_left":[true,true,true,true,true,true,true,true,true,true,true,true,false,true,true,true,false,false,false,true,true,true,true,true,false,true,true,true,false,false,false,false,false,false,false,false,false,false,false,false,false,false,false,false,false,false,false],"id":29,"left_children":[1,3,5,7,9,11,13,15,17,19,21,23,-1,25,27,29,-1,-1,-1,31,33,35,37,39,-1,41,43,45,-1,-1,-1,-1,-1,-1,-1,-1,-1,-1,-1,-1,-1,-1,-1,-1,-1,-1,-1],"loss_changes":[2.5310846E2,2.6286157E2,1.4532928E1,2.0537086E2,1.1452972E1,1.2069473E1,2.9915466E0,3.0351105E1,2.8561783E0,1.8864372E1,2.0449219E0,8.552475E0,0E0,5.377983E0,9.940491E-1,1.0059448E1,0E0,0E0,0E0,1.5384719E1,9.173985E0,8.778229E-1,3.8780956E0,8.392199E0,0E0,1.4647198E0,1.0983505E0,1.5405502E0,0E0,0E0,0E0,0E0,0E0,0E0,0E0,0E0,0E0,0E0,0E0,0E0,0E0,0E0,0E0,0E0,0E0,0E0,0E0],"parents":[2147483647,0,0,1,1,2,2,3,3,4,4,5,5,6,6,7,7,8,8,9,9,10,10,11,11,13,13,14,14,15,15,19,19,20,20,21,21,22,22,23,23,25,25,26,26,27,27],"right_children":[2,4,6,8,10,12,14,16,18,20,22,24,-1,26,28,30,-1,-1,-1,32,34,36,38,40,-1,42,44,46,-1,-1,-1,-1,-1,-1,-1,-1,-1,-1,-1,-1,-1,-1,-1,-1,-1,-1,-1],"split_conditions":[4.9363653E-4,4.923934E-4,3.9669704E-3,4.935174E-4,4.9422716E-4,4.958755E-4,1.11878E-6,4.9366255E-4,4.9432635E-4,1.8795765E-6,4.9441657E-4,5.0107134E-4,4.9214084E-2,4.9429026E-4,6.403546E-7,4.9044075E-4,3.788081E-2,1.3818513E-2,4.7559652E-2,1.3281424E-4,4.6261307E-6,4.956918E-4,5.034823E-4,4.9505546E-4,4.8017077E-2,7.980522E-3,-7.395566E-8,-1.3767945E-7,4.7781743E-2,-4.1763492E-2,1.2999765E-2,-2.5201045E-2,3.3550523E-2,4.280533E-3,4.9805902E-2,3.7138622E-2,4.7812495E-2,-1.7261512E-3,4.2833097E-2,1.1508314E-2,3.7481807E-2,5.5915043E-3,2.736897E-2,4.9192358E-2,3.6523696E-2,5.0947886E-2,2.9387938E-2],"split_indices":[22,27,29,4,27,22,27,15,4,38,5,27,0,22,4,23,0,0,0,17,22,27,5,15,0,29,27,4,0,0,0,0,0,0,0,0,0,0,0,0,0,0,0,0,0,0,0],"split_type":[0,0,0,0,0,0,0,0,0,0,0,0,0,0,0,0,0,0,0,0,0,0,0,0,0,0,0,0,0,0,0,0,0,0,0,0,0,0,0,0,0,0,0,0,0,0,0],"sum_hessian":[1.0201074E3,5.443321E2,4.757753E2,3.4617606E2,1.9815605E2,1.6735822E2,3.0841708E2,2.90344E2,5.5832077E1,6.5253716E1,1.3290234E2,1.3825964E2,2.9098576E1,1.5188799E2,1.565291E2,2.830104E2,7.333595E0,5.447488E0,5.038459E1,2.9652487E1,3.5601227E1,1.2154775E2,1.1354591E1,1.2264674E2,1.5612894E1,2.0120218E1,1.3176778E2,3.730378E1,1.1922533E2,2.779637E2,5.0466914E0,1.9776749E1,9.875736E0,9.913563E0,2.5687664E1,8.302309E1,3.8524662E1,6.2375875E0,5.1170044E0,9.8071976E1,2.457477E1,1.1395665E1,8.724553E0,2.4202473E1,1.075653E2,1.0440521E1,2.6863258E1],"tree_param":{"num_deleted":"0","num_feature":"96","num_nodes":"47","size_leaf_vector":"0"}},{"base_weights":[3.562718E-1,-1.0965495E0,8.988856E-1,-1.109038E0,-3.5922247E-1,2.9216677E-1,1.0877306E0,-7.159782E-1,7.0395947E-1,1.1401782E0,2.271726E-1,-9.465255E-1,1.0507808E0,-5.683645E-2,9.501185E-1,1.0271313E0,1.1924582E0,-4.123858E-1,1.1697595E0,-1.6845594E-1,-1.0769382E0,-8.539579E-1,1.0500509E0,-1.9555485E-1,1.0860703E0,7.92278E-1,1.1469178E0,1.2006552E0,6.1077434E-1,3.286175E-1,-8.441775E-1],"categories":[],"categories_nodes":[],"categories_segments":[],"categories_sizes":[],"default_left":[true,true,true,false,false,true,true,true,true,true,true,true,false,true,true,true,true,true,false,false,false,false,false,false,false,false,false,false,false,false,false],"id":30,"left_children":[1,3,5,-1,-1,7,9,11,13,15,17,19,-1,21,23,25,27,29,-1,-1,-1,-1,-1,-1,-1,-1,-1,-1,-1,-1,-1],"loss_changes":[7.895188E2,2.110382E0,8.318713E1,0E0,0E0,7.289259E1,2.481073E1,2.1794054E1,2.333337E1,1.8679199E0,2.0470495E1,4.455345E0,0E0,2.8540707E1,1.4849396E1,3.9494781E0,9.4314575E-1,6.8343E0,0E0,0E0,0E0,0E0,0E0,0E0,0E0,0E0,0E0,0E0,0E0,0E0,0E0],"parents":[2147483647,0,0,1,1,2,2,5,5,6,6,7,7,8,8,9,9,10,10,11,11,13,13,14,14,15,15,16,16,17,17],"right_children":[2,4,6,-1,-1,8,10,12,14,16,18,20,-1,22,24,26,28,30,-1,-1,-1,-1,-1,-1,-1,-1,-1,-1,-1,-1,-1],"split_conditions":[9.9514794E-1,3.7796656E-3,9.97807E-1,-4.436152E-2,-1.4368898E-2,3.998769E-3,1.881148E-2,1.25739E-5,3.6241806E-6,9.9814355E-1,9.091159E-6,2.178777E-2,4.203123E-2,4.458473E-3,4.6261307E-6,5.943078E-3,1.7304735E-2,1.9697834E-2,4.679038E-2,-6.7382376E-3,-4.3077525E-2,-3.4158316E-2,4.2002033E-2,-7.822194E-3,4.344281E-2,3.169112E-2,4.587671E-2,4.8026208E-2,2.4430973E-2,1.31447E-2,-3.37671E-2],"split_indices":[10,34,10,0,0,29,1,7,27,10,12,95,0,55,22,1,1,1,0,0,0,0,0,0,0,0,0,0,0,0,0],"split_type":[0,0,0,0,0,0,0,0,0,0,0,0,0,0,0,0,0,0,0,0,0,0,0,0,0,0,0,0,0,0,0],"sum_hessian":[9.992693E2,2.7145126E2,7.27818E2,2.664344E2,5.0168843E0,1.7336864E2,5.5444934E2,5.0064E1,1.2330464E2,5.222928E2,3.21566E1,4.4695827E1,5.3681726E0,3.033092E1,9.2973724E1,1.7168925E2,3.5060352E2,1.9492895E1,1.2663706E1,6.7450624E0,3.7950764E1,1.776559E1,1.2565329E1,9.815931E0,8.315779E1,6.0563213E1,1.11126045E2,3.4468222E2,5.9212937E0,7.264735E0,1.222816E1],"tree_param":{"num_deleted":"0","num_feature":"96","num_nodes":"31","size_leaf_vector":"0"}},{"base_weights":[3.5127193E-1,-1.0910568E0,8.8336957E-1,-1.0982356E0,-6.063236E-1,5.13701E-2,1.0174636E0,-5.777836E-1,1.052514E0,1.0842023E0,4.7960395E-1,-7.4840933E-1,1.0927569E0,5.163946E-1,1.1923598E0,2.3999472E-1,1.1096311E0,-1.0673954E-1,1.1653962E0,-8.68327E-1,2.6946142E-1,-4.4280562E-1,8.8375634E-1,9.8531085E-1,1.1737406E0,-8.3703953E-1,1.121677E0],"categories":[],"categories_nodes":[],"categories_segments":[],"categories_sizes":[],"default_left":[true,true,true,false,false,true,true,true,true,true,true,true,false,false,false,true,true,true,false,false,false,false,false,false,false,false,false],"id":31,"left_children":[1,3,5,-1,-1,7,9,11,13,15,17,19,-1,-1,-1,21,23,25,-1,-1,-1,-1,-1,-1,-1,-1,-1],"loss_changes":[7.489779E2,2.4969482E-1,7.944403E1,0E0,0E0,6.3567177E1,2.1505615E1,1.849774E1,2.3028946E0,1.1434814E1,2.8081043E1,7.1758213E0,0E0,0E0,0E0,7.958004E0,3.0585327E0,3.538451E1,0E0,0E0,0E0,0E0,0E0,0E0,0E0,0E0,0E0],"parents":[2147483647,0,0,1,1,2,2,5,5,6,6,7,7,8,8,9,9,10,10,11,11,15,15,16,16,17,17],"right_children":[2,4,6,-1,-1,8,10,12,14,16,18,20,-1,-1,-1,22,24,26,-1,-1,-1,-1,-1,-1,-1,-1,-1],"split_conditions":[9.9514794E-1,4.9289875E-4,9.97564E-1,-4.3929424E-2,-2.4252944E-2,5.0568588E-2,1.9248536E-2,1.4787291E-3,5.7264045E-2,9.977477E-1,4.122127E-2,9.72952E-5,4.3710273E-2,2.0655785E-2,4.7694393E-2,4.3233134E-2,9.9814355E-1,9.091159E-6,4.6615846E-2,-3.473308E-2,1.0778457E-2,-1.7712224E-2,3.5350252E-2,3.941243E-2,4.6949625E-2,-3.348158E-2,4.486708E-2],"split_indices":[10,15,10,0,0,1,1,63,1,10,0,12,0,0,0,0,10,12,0,0,0,0,0,0,0,0,0],"split_type":[0,0,0,0,0,0,0,0,0,0,0,0,0,0,0,0,0,0,0,0,0,0,0,0,0,0,0],"sum_hessian":[9.7366235E2,2.6211383E2,7.115485E2,2.5704144E2,5.072377E0,9.895509E1,6.1259344E2,6.102668E1,3.7928413E1,5.4406854E2,6.852492E1,5.5872017E1,5.1546636E0,8.817574E0,2.9110842E1,1.6214169E1,5.278544E2,3.7396095E1,3.112882E1,5.0114796E1,5.7572203E0,8.019992E0,8.194177E0,1.8516132E2,3.4269302E2,2.3652918E1,1.3743177E1],"tree_param":{"num_deleted":"0","num_feature":"96","num_nodes":"27","size_leaf_vector":"0"}},{"base_weights":[3.463693E-1,1.2568966E0,-1.1361228E0,-1.145271E0,-4.2421806E-1,-1.1083285E0,-1.3271968E0,-6.361409E-1,-1.1142354E0],"categories":[],"categories_nodes":[],"categories_segments":[],"categories_sizes":[],"default_left":[true,false,true,true,false,true,false,false,false],"id":32,"left_children":[1,-1,3,5,-1,7,-1,-1,-1],"loss_changes":[1.2834531E3,0E0,1.8710632E0,9.2645264E-1,0E0,1.3513184E-1,0E0,0E0,0E0],"parents":[2147483647,0,0,2,2,3,3,5,5],"right_children":[2,-1,4,6,-1,8,-1,-1,-1],"split_conditions":[1.5304392E-2,5.0275862E-2,4.957116E-4,9.975811E-1,-1.6968722E-2,4.4269086E-4,-5.308787E-2,-2.5445634E-2,-4.4569414E-2],"split_indices":[3,0,21,10,0,9,0,0,0],"split_type":[0,0,0,0,0,0,0,0,0],"sum_hessian":[9.4875415E2,5.8785406E2,3.609001E2,3.5572028E2,5.179802E0,3.0157382E2,5.414646E1,5.068981E0,2.9650482E2],"tree_param":{"num_deleted":"0","num_feature":"96","num_nodes":"9","size_leaf_vector":"0"}},{"base_weights":[3.431362E-1,1.2442489E0,-1.1284314E0,-3.9825174E-1,-1.1379367E0,-1.1430721E0,-6.701391E-1,-1.0916733E0,-1.2408303E0],"categories":[],"categories_nodes":[],"categories_segments":[],"categories_sizes":[],"default_left":[true,false,true,false,true,true,false,false,false],"id":33,"left_children":[1,-1,3,-1,5,7,-1,-1,-1],"loss_changes":[1.2221527E3,0E0,1.9771118E0,0E0,6.304932E-2,3.5354614E-1,0E0,0E0,0E0],"parents":[2147483647,0,0,2,2,4,4,5,5],"right_children":[2,-1,4,-1,6,8,-1,-1,-1],"split_conditions":[1.5304392E-2,4.9769953E-2,1.583526E-2,-1.593007E-2,9.918762E-4,2.1784637E-2,-2.6805563E-2,-4.366693E-2,-4.9633212E-2],"split_indices":[3,0,3,0,31,95,0,0,0],"split_type":[0,0,0,0,0,0,0,0,0],"sum_hessian":[9.195915E2,5.7043854E2,3.4915292E2,5.0380397E0,3.4411487E2,3.3895044E2,5.164424E0,2.3012398E2,1.0882647E2],"tree_param":{"num_deleted":"0","num_feature":"96","num_nodes":"9","size_leaf_vector":"0"}},{"base_weights":[3.4007397E-1,-1.0762446E0,8.499563E-1,-1.0902543E0,-3.6684555E-1,2.7521697E-1,1.030558E0,6.3668346E-1,-3.6045778E-1,1.0814624E0,2.112219E-1,2.42873E-1,1.2057705E0,-9.63026E-1,4.3999466E-1,9.622855E-1,1.1377193E0,-3.8178262E-1,1.1099637E0,-1.18742265E-1,1.0384364E0,-1.0927333E0,-2.5370926E-1,-5.3670025E-1,7.442129E-1,7.2098255E-1,1.0882194E0,1.1467032E0,5.331093E-1,2.9225472E-1,-7.7685434E-1],"categories":[],"categories_nodes":[],"categories_segments":[],"categories_sizes":[],"default_left":[true,true,true,false,false,true,true,true,true,true,true,true,false,true,true,true,true,true,false,false,false,false,false,false,false,false,false,false,false,false,false],"id":34,"left_children":[1,3,5,-1,-1,7,9,11,13,15,17,19,-1,21,23,25,27,29,-1,-1,-1,-1,-1,-1,-1,-1,-1,-1,-1,-1,-1],"loss_changes":[6.450526E2,1.9510498E0,6.785135E1,0E0,0E0,3.660576E1,2.0587952E1,2.240643E1,2.841183E1,2.054016E0,1.6645618E1,1.7704872E1,0E0,2.7974625E0,8.008248E0,3.989212E0,1.091919E0,5.308412E0,0E0,0E0,0E0,0E0,0E0,0E0,0E0,0E0,0E0,0E0,0E0,0E0,0E0],"parents":[2147483647,0,0,1,1,2,2,5,5,6,6,7,7,8,8,9,9,10,10,11,11,13,13,14,14,15,15,16,16,17,17],"right_children":[2,4,6,-1,-1,8,10,12,14,16,18,20,-1,22,24,26,28,30,-1,-1,-1,-1,-1,-1,-1,-1,-1,-1,-1,-1,-1],"split_conditions":[9.9514794E-1,4.8816632E-4,9.97807E-1,-4.361017E-2,-1.4673822E-2,4.9214775E-4,1.881148E-2,3.2884589E-6,9.9762994E-1,9.9814355E-1,9.091159E-6,5.0241135E-2,4.823082E-2,3.472731E-3,4.940301E-4,5.943078E-3,1.7304735E-2,1.9697834E-2,4.4398546E-2,-4.7496906E-3,4.1537456E-2,-4.370933E-2,-1.014837E-2,-2.146801E-2,2.9768517E-2,2.8839301E-2,4.3528777E-2,4.586813E-2,2.1324372E-2,1.1690188E-2,-3.1074172E-2],"split_indices":[10,25,10,0,0,4,1,4,10,10,12,1,0,30,21,1,1,1,0,0,0,0,0,0,0,0,0,0,0,0,0],"split_type":[0,0,0,0,0,0,0,0,0,0,0,0,0,0,0,0,0,0,0,0,0,0,0,0,0,0,0,0,0,0,0],"sum_hessian":[8.909653E2,2.355523E2,6.5541296E2,2.3046407E2,5.0882406E0,1.5731244E2,4.9810052E2,1.00285225E2,5.702721E1,4.6866315E2,2.94374E1,6.011334E1,4.017189E1,3.2419334E1,2.4607878E1,1.560936E2,3.1256955E2,1.8081882E1,1.1355517E1,4.1912968E1,1.8200369E1,2.695055E1,5.4687834E0,5.6629004E0,1.8944977E1,5.583424E1,1.0025935E2,3.071096E2,5.459965E0,6.7780337E0,1.1303848E1],"tree_param":{"num_deleted":"0","num_feature":"96","num_nodes":"31","size_leaf_vector":"0"}},{"base_weights":[3.3545268E-1,1.2234921E0,-1.1200465E0,-1.1301942E0,-3.8464513E-1,-1.0939515E0,-1.2562277E0,-6.407052E-1,-1.1006413E0],"categories":[],"categories_nodes":[],"categories_segments":[],"categories_sizes":[],"default_left":[true,false,true,true,false,true,false,false,false],"id":35,"left_children":[1,-1,3,5,-1,7,-1,-1,-1],"loss_changes":[1.1243718E3,0E0,2.0260925E0,1.0910034E-1,0E0,8.303833E-2,0E0,0E0,0E0],"parents":[2147483647,0,0,2,2,3,3,5,5],"right_children":[2,-1,4,6,-1,8,-1,-1,-1],"split_conditions":[1.5304392E-2,4.8939686E-2,4.9575587E-4,4.937274E-4,-1.5385805E-2,1.8297704E-2,-5.0249107E-2,-2.562821E-2,-4.402565E-2],"split_indices":[3,0,27,22,0,3,0,0,0],"split_type":[0,0,0,0,0,0,0,0,0],"sum_hessian":[8.6783246E2,5.390828E2,3.2874963E2,3.2374548E2,5.0041637E0,2.5895813E2,6.478736E1,5.1741333E0,2.53784E2],"tree_param":{"num_deleted":"0","num_feature":"96","num_nodes":"9","size_leaf_vector":"0"}},{"base_weights":[3.3267012E-1,-1.067194E0,8.2741654E-1,-1.0819509E0,-3.6843437E-1,2.6740333E-1,1.004578E0,-8.512373E-2,8.729028E-1,1.0550168E0,2.0257649E-1,1.522637E-1,-8.3123165E-1,1.1796272E0,2.5856256E-2,9.3235344E-1,1.1135387E0,-4.842317E-1,8.683418E-1,-3.897278E-2,1.1159307E0,-1.0347635E0,-1.3702711E-1,-2.1632865E-1,4.3398222E-1,6.904306E-1,1.0605181E0,1.1228478E0,5.0478894E-1,-2.906437E-2,-7.519368E-1,1.100839E0,3.699589E-1],"categories":[],"categories_nodes":[],"categories_segments":[],"categories_sizes":[],"default_left":[true,true,true,false,false,true,true,true,true,true,true,true,true,false,true,true,true,true,true,false,false,false,false,false,false,false,false,false,false,false,false,false,false],"id":36,"left_children":[1,3,5,-1,-1,7,9,11,13,15,17,19,21,-1,23,25,27,29,31,-1,-1,-1,-1,-1,-1,-1,-1,-1,-1,-1,-1,-1,-1],"loss_changes":[5.835353E2,1.87117E0,6.1457306E1,0E0,0E0,3.228095E1,1.8890686E1,1.7178148E1,1.4417385E1,2.1496887E0,1.3764057E1,1.36588545E1,3.1633835E0,0E0,1.6561704E0,3.905838E0,1.1077881E0,1.806637E0,1.3512211E0,0E0,0E0,0E0,0E0,0E0,0E0,0E0,0E0,0E0,0E0,0E0,0E0,0E0,0E0],"parents":[2147483647,0,0,1,1,2,2,5,5,6,6,7,7,8,8,9,9,10,10,11,11,12,12,14,14,15,15,16,16,17,17,18,18],"right_children":[2,4,6,-1,-1,8,10,12,14,16,18,20,22,-1,24,26,28,30,32,-1,-1,-1,-1,-1,-1,-1,-1,-1,-1,-1,-1,-1,-1],"split_conditions":[9.9514794E-1,3.3672228E-3,9.97807E-1,-4.3278035E-2,-1.4737374E-2,1.2704088E-6,1.881148E-2,4.900872E-4,4.932622E-4,9.9814355E-1,5.088856E-4,1.7406012E-6,9.976858E-1,4.7185086E-2,4.948497E-4,5.943078E-3,1.7304735E-2,1.956325E-3,1.9501499E-3,-1.5589112E-3,4.4637226E-2,-4.139054E-2,-5.4810843E-3,-8.653146E-3,1.7359288E-2,2.7617224E-2,4.2420726E-2,4.491391E-2,2.0191558E-2,-1.1625747E-3,-3.007747E-2,4.403356E-2,1.4798356E-2],"split_indices":[10,34,10,0,0,17,1,28,17,10,32,28,10,0,17,1,1,9,9,0,0,0,0,0,0,0,0,0,0,0,0,0,0],"split_type":[0,0,0,0,0,0,0,0,0,0,0,0,0,0,0,0,0,0,0,0,0,0,0,0,0,0,0,0,0,0,0,0,0],"sum_hessian":[8.402806E2,2.1912332E2,6.211573E2,2.140544E2,5.0689306E0,1.4988263E2,4.7127466E2,9.527317E1,5.460946E1,4.430926E2,2.8182043E1,7.288078E1,2.239239E1,3.9803543E1,1.4805916E1,1.4858574E2,2.9450687E2,1.4006012E1,1.4176031E1,6.1613377E1,1.1267409E1,1.6936306E1,5.456083E0,9.586916E0,5.2189994E0,5.3668484E1,9.491725E1,2.8923926E2,5.2675996E0,5.5974603E0,8.408551E0,8.842265E0,5.3337665E0],"tree_param":{"num_deleted":"0","num_feature":"96","num_nodes":"33","size_leaf_vector":"0"}},{"base_weights":[3.279671E-1,1.2050749E0,-1.1127977E0,-1.12326E0,-4.1008514E-1,-1.0821465E0,-1.2333771E0],"categories":[],"categories_nodes":[],"categories_segments":[],"categories_sizes":[],"default_left":[true,false,true,true,false,false,false],"id":37,"left_children":[1,-1,3,5,-1,-1,-1],"loss_changes":[1.0375913E3,0E0,1.8244934E0,4.9224854E-2,0E0,0E0,0E0],"parents":[2147483647,0,0,2,2,3,3],"right_children":[2,-1,4,6,-1,-1,-1],"split_conditions":[1.5304392E-2,4.8202995E-2,4.9572624E-4,4.9399416E-4,-1.6403405E-2,-4.328586E-2,-4.933508E-2],"split_indices":[3,0,27,11,0,0,0],"split_type":[0,0,0,0,0,0,0],"sum_hessian":[8.19009E2,5.091889E2,3.0982007E2,3.0468536E2,5.134725E0,2.2973755E2,7.49478E1],"tree_param":{"num_deleted":"0","num_feature":"96","num_nodes":"7","size_leaf_vector":"0"}},{"base_weights":[3.2542783E-1,-1.0588243E0,8.055357E-1,-1.074545E0,-3.608741E-1,2.593188E-1,9.802467E-1,-6.7516595E-1,6.442617E-1,1.0304184E0,1.9471852E-1,-9.293714E-1,1.4653651E-1,8.6581665E-1,-1.0545005E-3,9.043394E-1,1.0912242E0,6.8660194E-1,-6.306994E-1,-3.3825922E-1,-1.0828719E0,5.1616913E-1,1.1727089E0,-3.5346752E-1,9.8674387E-1,6.618544E-1,1.0347931E0,1.1008935E0,4.7765875E-1,9.3170345E-1,5.7945143E-2],"categories":[],"categories_nodes":[],"categories_segments":[],"categories_sizes":[],"default_left":[true,true,true,false,false,true,true,true,true,true,true,true,false,true,true,true,true,true,false,false,false,false,false,false,false,false,false,false,false,false,false],"id":38,"left_children":[1,3,5,-1,-1,7,9,11,13,15,17,19,-1,21,23,25,27,29,-1,-1,-1,-1,-1,-1,-1,-1,-1,-1,-1,-1,-1],"loss_changes":[5.283047E2,1.8594818E0,5.603409E1,0E0,0E0,5.2343807E1,1.7397888E1,9.032108E0,1.4686195E1,2.2291565E0,1.1817951E1,2.5973492E0,0E0,7.599514E0,9.834982E0,3.8173828E0,1.1244202E0,2.7271194E0,0E0,0E0,0E0,0E0,0E0,0E0,0E0,0E0,0E0,0E0,0E0,0E0,0E0],"parents":[2147483647,0,0,1,1,2,2,5,5,6,6,7,7,8,8,9,9,10,10,11,11,13,13,14,14,15,15,16,16,17,17],"right_children":[2,4,6,-1,-1,8,10,12,14,16,18,20,-1,22,24,26,28,30,-1,-1,-1,-1,-1,-1,-1,-1,-1,-1,-1,-1,-1],"split_conditions":[9.9514794E-1,1.4861382E-2,9.97807E-1,-4.29818E-2,-1.4434963E-2,3.998769E-3,1.881148E-2,3.3361324E-5,4.9219024E-4,9.9814355E-1,4.8721262E-4,2.44558E-3,5.86146E-3,3.0458472E-7,5.4655164E-2,5.943078E-3,1.7304735E-2,2.566378E-4,-2.5227975E-2,-1.3530369E-2,-4.3314874E-2,2.0646764E-2,4.6908353E-2,-1.41387E-2,3.9469752E-2,2.6474174E-2,4.1391723E-2,4.403574E-2,1.9106349E-2,3.7268136E-2,2.3178058E-3],"split_indices":[10,29,10,0,0,29,1,17,20,10,4,29,0,20,1,1,1,15,0,0,0,0,0,0,0,0,0,0,0,0,0],"split_type":[0,0,0,0,0,0,0,0,0,0,0,0,0,0,0,0,0,0,0,0,0,0,0,0,0,0,0,0,0,0,0],"sum_hessian":[7.926495E2,2.0381177E2,5.888377E2,1.9879451E2,5.0172653E0,1.433021E2,4.4553558E2,4.1588413E1,1.0171368E2,4.184946E2,2.7041004E1,3.166222E1,9.926194E0,7.546333E1,2.6250347E1,1.413279E2,2.771667E2,1.7049208E1,9.991796E0,7.18753E0,2.447469E1,3.652813E1,3.8935204E1,1.9821037E1,6.4293094E0,5.156093E1,8.976696E1,2.7208463E2,5.0820737E0,1.1919834E1,5.1293745E0],"tree_param":{"num_deleted":"0","num_feature":"96","num_nodes":"31","size_leaf_vector":"0"}},{"base_weights":[3.210152E-1,1.1883906E0,-1.1056998E0,-4.333605E-1,-1.1163021E0,-1.0775238E0,-1.2777184E0,-6.094129E-1,-1.0849612E0],"categories":[],"categories_nodes":[],"categories_segments":[],"categories_sizes":[],"default_left":[true,false,true,false,true,true,false,false,false],"id":39,"left_children":[1,-1,3,-1,5,7,-1,-1,-1],"loss_changes":[9.579812E2,0E0,1.6034546E0,0E0,4.236145E-1,1.6842651E-1,0E0,0E0,0E0],"parents":[2147483647,0,0,2,2,4,4,5,5],"right_children":[2,-1,4,-1,6,8,-1,-1,-1],"split_conditions":[1.5304392E-2,4.7535624E-2,1.584233E-2,-1.7334418E-2,9.975811E-1,4.5531E-4,-5.1108737E-2,-2.4376515E-2,-4.3398447E-2],"split_indices":[3,0,3,0,10,9,0,0,0],"split_type":[0,0,0,0,0,0,0,0,0],"sum_hessian":[7.72066E2,4.802585E2,2.9180746E2,5.1802497E0,2.8662723E2,2.3729535E2,4.9331863E1,5.008303E0,2.3228705E2],"tree_param":{"num_deleted":"0","num_feature":"96","num_nodes":"9","size_leaf_vector":"0"}},{"base_weights":[3.1862193E-1,1.179564E0,-1.0991064E0,-1.1107898E0,-3.7588257E-1,-1.1195568E0,-5.368156E-1,-1.0813272E0,-1.2946376E0],"categories":[],"categories_nodes":[],"categories_segments":[],"categories_sizes":[],"default_left":[true,false,true,true,false,true,false,false,false],"id":40,"left_children":[1,-1,3,5,-1,7,-1,-1,-1],"loss_changes":[9.1419244E2,0E0,1.9746094E0,7.9833984E-1,0E0,4.272461E-1,0E0,0E0,0E0],"parents":[2147483647,0,0,2,2,3,3,5,5],"right_children":[2,-1,4,6,-1,8,-1,-1,-1],"split_conditions":[1.5304392E-2,4.718256E-2,4.957116E-4,4.95527E-4,-1.5035302E-2,9.97604E-1,-2.1472624E-2,-4.3253087E-2,-5.1785503E-2],"split_indices":[3,0,21,27,0,10,0,0,0],"split_type":[0,0,0,0,0,0,0,0,0],"sum_hessian":[7.4691864E2,4.648175E2,2.8210114E2,2.77089E2,5.012141E0,2.719841E2,5.1048975E0,2.2912892E2,4.2855183E1],"tree_param":{"num_deleted":"0","num_feature":"96","num_nodes":"9","size_leaf_vector":"0"}},{"base_weights":[3.1634665E-1,1.1711956E0,-1.09287E0,-1.1050524E0,-3.6905375E-1],"categories":[],"categories_nodes":[],"categories_segments":[],"categories_sizes":[],"default_left":[true,false,true,false,false],"id":41,"left_children":[1,-1,3,-1,-1],"loss_changes":[8.726945E2,0E0,2.005066E0,0E0,0E0],"parents":[2147483647,0,0,2,2],"right_children":[2,-1,4,-1,-1],"split_conditions":[1.5304392E-2,4.6847824E-2,4.9572624E-4,-4.4202093E-2,-1.476215E-2],"split_indices":[3,0,27,0,0],"split_type":[0,0,0,0,0],"sum_hessian":[7.2236523E2,4.497251E2,2.7264014E2,2.6760938E2,5.030771E0],"tree_param":{"num_deleted":"0","num_feature":"96","num_nodes":"5","size_leaf_vector":"0"}},{"base_weights":[3.1430453E-1,1.1632558E0,-1.08697E0,-3.626002E-1,-1.0996543E0,-1.1097329E0,-4.9037394E-1],"categories":[],"categories_nodes":[],"categories_segments":[],"categories_sizes":[],"default_left":[true,false,true,false,true,false,false],"id":42,"left_children":[1,-1,3,-1,5,-1,-1],"loss_changes":[8.332223E2,0E0,2.030304E0,0E0,1.0482178E0,0E0,0E0],"parents":[2147483647,0,0,2,2,4,4],"right_children":[2,-1,4,-1,6,-1,-1],"split_conditions":[1.5304392E-2,4.653023E-2,1.584233E-2,-1.4504008E-2,1.646398E-2,-4.4389315E-2,-1.9614957E-2],"split_indices":[3,0,3,0,29,0,0],"split_type":[0,0,0,0,0,0,0],"sum_hessian":[6.9835126E2,4.3498737E2,2.633639E2,5.041556E0,2.5832233E2,2.5331075E2,5.011571E0],"tree_param":{"num_deleted":"0","num_feature":"96","num_nodes":"7","size_leaf_vector":"0"}},{"base_weights":[3.1231266E-1,1.1557174E0,-1.0812639E0,-1.0947852E0,-3.4600335E-1,-1.1048106E0,-5.188862E-1],"categories":[],"categories_nodes":[],"categories_segments":[],"categories_sizes":[],"default_left":[true,false,true,true,false,false,false],"id":43,"left_children":[1,-1,3,5,-1,-1,-1],"loss_changes":[7.957783E2,0E0,2.1601562E0,8.7194824E-1,0E0,0E0,0E0],"parents":[2147483647,0,0,2,2,3,3],"right_children":[2,-1,4,6,-1,-1,-1],"split_conditions":[1.5304392E-2,4.6228696E-2,4.957026E-4,1.646398E-2,-1.3840134E-2,-4.4192422E-2,-2.0755447E-2],"split_indices":[3,0,21,29,0,0,0],"split_type":[0,0,0,0,0,0,0],"sum_hessian":[6.749939E2,4.2060858E2,2.543853E2,2.4931152E2,5.0737705E0,2.44143E2,5.168522E0],"tree_param":{"num_deleted":"0","num_feature":"96","num_nodes":"7","size_leaf_vector":"0"}},{"base_weights":[3.1039777E-1,1.1391683E0,-1.0919291E0,1.1485808E0,3.1613195E-1,-5.937342E-1,-1.099935E0],"categories":[],"categories_nodes":[],"categories_segments":[],"categories_sizes":[],"default_left":[true,true,true,false,false,false,false],"id":44,"left_children":[1,3,5,-1,-1,-1,-1],"loss_changes":[7.6049274E2,2.8215942E0,3.16864E-1,0E0,0E0,0E0,0E0],"parents":[2147483647,0,0,1,1,2,2],"right_children":[2,4,6,-1,-1,-1,-1],"split_conditions":[1.570161E-2,1.5036963E-2,4.6505145E-4,4.594323E-2,1.2645278E-2,-2.3749368E-2,-4.39974E-2],"split_indices":[3,3,9,0,0,0,0],"split_type":[0,0,0,0,0,0,0],"sum_hessian":[6.5228186E2,4.1010114E2,2.4218074E2,4.0507303E2,5.0281034E0,5.019032E0,2.371617E2],"tree_param":{"num_deleted":"0","num_feature":"96","num_nodes":"7","size_leaf_vector":"0"}},{"base_weights":[3.0857152E-1,1.1319722E0,-1.0869595E0,1.1417693E0,3.05789E-1,-5.916818E-1,-1.0952152E0],"categories":[],"categories_nodes":[],"categories_segments":[],"categories_sizes":[],"default_left":[true,true,true,false,false,false,false],"id":45,"left_children":[1,3,5,-1,-1,-1,-1],"loss_changes":[7.26586E2,2.8682861E0,3.1185913E-1,0E0,0E0,0E0,0E0],"parents":[2147483647,0,0,1,1,2,2],"right_children":[2,4,6,-1,-1,-1,-1],"split_conditions":[1.570161E-2,1.5036963E-2,4.6560974E-4,4.567077E-2,1.22315595E-2,-2.366727E-2,-4.3808606E-2],"split_indices":[3,3,9,0,0,0,0],"split_type":[0,0,0,0,0,0,0],"sum_hessian":[6.302484E2,3.9649475E2,2.3375365E2,3.9147058E2,5.02415E0,5.023963E0,2.2872969E2],"tree_param":{"num_deleted":"0","num_feature":"96","num_nodes":"7","size_leaf_vector":"0"}},{"base_weights":[3.068134E-1,1.1353003E0,-1.0651611E0,-1.080733E0,-3.1338948E-1,-1.092604E0,-4.7394446E-1],"categories":[],"categories_nodes":[],"categories_segments":[],"categories_sizes":[],"default_left":[true,false,true,true,false,false,false],"id":46,"left_children":[1,-1,3,5,-1,-1,-1],"loss_changes":[6.9439996E2,0E0,2.3552856E0,1.103241E0,0E0,0E0,0E0],"parents":[2147483647,0,0,2,2,3,3],"right_children":[2,-1,4,6,-1,-1,-1],"split_conditions":[1.5304392E-2,4.541201E-2,4.9569225E-4,4.9552054E-4,-1.2535579E-2,-4.370416E-2,-1.8957777E-2],"split_indices":[3,0,27,21,0,0,0],"split_type":[0,0,0,0,0,0,0],"sum_hessian":[6.0884717E2,3.797201E2,2.2912704E2,2.2404863E2,5.0784197E0,2.1896423E2,5.0843925E0],"tree_param":{"num_deleted":"0","num_feature":"96","num_nodes":"7","size_leaf_vector":"0"}},{"base_weights":[3.0511832E-1,1.1190065E0,-1.0778713E0,1.1291242E0,3.1859493E-1,-1.0900345E0,-4.710711E-1],"categories":[],"categories_nodes":[],"categories_segments":[],"categories_sizes":[],"default_left":[true,true,true,false,false,false,false],"id":47,"left_children":[1,3,5,-1,-1,-1,-1],"loss_changes":[6.641927E2,2.6470642E0,1.1008148E0,0E0,0E0,0E0,0E0],"parents":[2147483647,0,0,1,1,2,2],"right_children":[2,4,6,-1,-1,-1,-1],"split_conditions":[1.570161E-2,1.5022002E-2,1.5288912E-2,4.5164965E-2,1.2743797E-2,-4.360138E-2,-1.8842842E-2],"split_indices":[3,3,29,0,0,0,0],"split_type":[0,0,0,0,0,0,0],"sum_hessian":[5.880078E2,3.702858E2,2.1772198E2,3.6525803E2,5.027765E0,2.1266286E2,5.0591397E0],"tree_param":{"num_deleted":"0","num_feature":"96","num_nodes":"7","size_leaf_vector":"0"}},{"base_weights":[3.034973E-1,1.1126951E0,-1.0733277E0,1.1232482E0,3.081969E-1,-5.8516204E-1,-1.0824354E0],"categories":[],"categories_nodes":[],"categories_segments":[],"categories_sizes":[],"default_left":[true,true,true,false,false,false,false],"id":48,"left_children":[1,3,5,-1,-1,-1,-1],"loss_changes":[6.3495087E2,2.6996765E0,3.050537E-1,0E0,0E0,0E0,0E0],"parents":[2147483647,0,0,1,1,2,2],"right_children":[2,4,6,-1,-1,-1,-1],"split_conditions":[1.570161E-2,1.5022002E-2,4.6911885E-4,4.492993E-2,1.2327876E-2,-2.3406481E-2,-4.3297414E-2],"split_indices":[3,3,9,0,0,0,0],"split_type":[0,0,0,0,0,0,0],"sum_hessian":[5.678386E2,3.577632E2,2.1007541E2,3.527399E2,5.023326E0,5.0426507E0,2.0503276E2],"tree_param":{"num_deleted":"0","num_feature":"96","num_nodes":"7","size_leaf_vector":"0"}},{"base_weights":[3.019186E-1,1.106641E0,-1.0688506E0,1.1176479E0,2.9813755E-1,-1.0819658E0,-4.5938E-1],"categories":[],"categories_nodes":[],"categories_segments":[],"categories_sizes":[],"default_left":[true,true,true,false,false,false,false],"id":49,"left_children":[1,3,5,-1,-1,-1,-1],"loss_changes":[6.070978E2,2.7511902E0,1.131134E0,0E0,0E0,0E0,0E0],"parents":[2147483647,0,0,1,1,2,2],"right_children":[2,4,6,-1,-1,-1,-1],"split_conditions":[1.570161E-2,1.5022002E-2,1.4832113E-2,4.4705916E-2,1.1925502E-2,-4.327863E-2,-1.83752E-2],"split_indices":[3,3,29,0,0,0,0],"split_type":[0,0,0,0,0,0,0],"sum_hessian":[5.482893E2,3.4559647E2,2.0269286E2,3.4057755E2,5.0189347E0,1.9766408E2,5.0287685E0],"tree_param":{"num_deleted":"0","num_feature":"96","num_nodes":"7","size_leaf_vector":"0"}},{"base_weights":[3.0040574E-1,-1.0203586E0,7.280096E-1,-1.0391756E0,-4.604477E-1,2.3379403E-1,8.878243E-1,6.685175E-2,9.9112254E-1,9.3651193E-1,1.5465447E-1,-4.2961407E-1,4.6940336E-1,8.037764E-1,1.0016438E0,-3.34163E-1,9.4742924E-1,-8.131175E-1,3.457529E-2,-1.1330256E-1,7.938742E-1,5.563095E-1,9.4005674E-1,1.0156333E0,4.739491E-1,1.0552808E-1,-6.174499E-1],"categories":[],"categories_nodes":[],"categories_segments":[],"categories_sizes":[],"default_left":[true,true,true,false,false,true,true,true,false,true,true,true,true,true,true,true,false,false,false,false,false,false,false,false,false,false,false],"id":50,"left_children":[1,3,5,-1,-1,7,9,11,-1,13,15,17,19,21,23,25,-1,-1,-1,-1,-1,-1,-1,-1,-1,-1,-1],"loss_changes":[3.0025092E2,8.924408E-1,3.1480774E1,0E0,0E0,1.2500065E1,1.0664429E1,1.6692188E1,0E0,1.6480713E0,8.088128E0,6.6982694E0,8.79559E0,2.797802E0,8.938751E-1,1.7024375E0,0E0,0E0,0E0,0E0,0E0,0E0,0E0,0E0,0E0,0E0,0E0],"parents":[2147483647,0,0,1,1,2,2,5,5,6,6,7,7,9,9,10,10,11,11,12,12,13,13,14,14,15,15],"right_children":[2,4,6,-1,-1,8,10,12,-1,14,16,18,20,22,24,26,-1,-1,-1,-1,-1,-1,-1,-1,-1,-1,-1],"split_conditions":[9.9514794E-1,4.8135375E-4,9.97807E-1,-4.1567024E-2,-1.8417908E-2,5.6350134E-2,1.881148E-2,9.9749583E-1,3.96449E-2,9.9814355E-1,9.091159E-6,3.8703375E-2,4.9467944E-4,5.943078E-3,1.6831726E-2,1.978777E-2,3.789717E-2,-3.25247E-2,1.3830116E-3,-4.532102E-3,3.1754967E-2,2.225238E-2,3.760227E-2,4.0625334E-2,1.8957963E-2,4.221123E-3,-2.4697995E-2],"split_indices":[10,25,10,0,0,1,1,10,0,10,12,1,31,1,1,1,0,0,0,0,0,0,0,0,0,0,0],"split_type":[0,0,0,0,0,0,0,0,0,0,0,0,0,0,0,0,0,0,0,0,0,0,0,0,0,0,0],"sum_hessian":[5.2932446E2,1.2911949E2,4.00205E2,1.240931E2,5.0263925E0,9.8393394E1,3.0181158E2,8.151324E1,1.688016E1,2.8275714E2,1.9054422E1,3.646895E1,4.5044285E1,9.7466286E1,1.8529088E2,1.214464E1,6.9097815E0,1.9558464E1,1.6910484E1,1.6343813E1,2.8700474E1,3.6418064E1,6.104822E1,1.7960475E2,5.6861124E0,5.004545E0,7.1400948E0],"tree_param":{"num_deleted":"0","num_feature":"96","num_nodes":"27","size_leaf_vector":"0"}},{"base_weights":[2.9642925E-1,1.1088386E0,-1.0456886E0,-5.1365227E-1,-1.0750262E0,-9.03118E-2,-8.649582E-1],"categories":[],"categories_nodes":[],"categories_segments":[],"categories_sizes":[],"default_left":[true,false,true,true,false,false,false],"id":51,"left_children":[1,-1,3,5,-1,-1,-1],"loss_changes":[5.643558E2,0E0,2.4958801E0,1.7244668E0,0E0,0E0,0E0],"parents":[2147483647,0,0,2,2,3,3],"right_children":[2,-1,4,6,-1,-1,-1],"split_conditions":[1.5304392E-2,4.435354E-2,1.7245656E-2,4.947035E-4,-4.3001045E-2,-3.612472E-3,-3.459833E-2],"split_indices":[3,0,3,32,0,0,0],"split_type":[0,0,0,0,0,0,0],"sum_hessian":[5.155284E2,3.2124597E2,1.9428244E2,1.11204815E1,1.8316196E2,5.613282E0,5.5071993E0],"tree_param":{"num_deleted":"0","num_feature":"96","num_nodes":"7","size_leaf_vector":"0"}},{"base_weights":[2.9497504E-1,1.1039078E0,-1.0409703E0,-5.004066E-1,-1.0717187E0,-8.7341234E-2,-8.476706E-1],"categories":[],"categories_nodes":[],"categories_segments":[],"categories_sizes":[],"default_left":[true,false,true,true,false,false,false],"id":52,"left_children":[1,-1,3,5,-1,-1,-1],"loss_changes":[5.399199E2,0E0,2.5974884E0,1.650598E0,0E0,0E0,0E0],"parents":[2147483647,0,0,2,2,3,3],"right_children":[2,-1,4,6,-1,-1,-1],"split_conditions":[1.5304392E-2,4.4156313E-2,1.7245656E-2,4.947035E-4,-4.286875E-2,-3.4936492E-3,-3.3906825E-2],"split_indices":[3,0,3,32,0,0,0],"split_type":[0,0,0,0,0,0,0],"sum_hessian":[4.975433E2,3.1000488E2,1.8753842E2,1.1023156E1,1.7651527E2,5.6061893E0,5.4169674E0],"tree_param":{"num_deleted":"0","num_feature":"96","num_nodes":"7","size_leaf_vector":"0"}},{"base_weights":[2.9356465E-1,1.0868251E0,-1.0571328E0,1.0991416E0,2.9462105E-1],"categories":[],"categories_nodes":[],"categories_segments":[],"categories_sizes":[],"default_left":[true,true,false,false,false],"id":53,"left_children":[1,3,-1,-1,-1],"loss_changes":[5.1665265E2,2.6384583E0,0E0,0E0,0E0],"parents":[2147483647,0,0,1,1],"right_children":[2,4,-1,-1,-1],"split_conditions":[1.570161E-2,1.4971831E-2,-4.2285312E-2,4.3965664E-2,1.1784841E-2],"split_indices":[3,3,0,0,0],"split_type":[0,0,0,0,0],"sum_hessian":[4.80125E2,3.026027E2,1.7752228E2,2.975886E2,5.0140977E0],"tree_param":{"num_deleted":"0","num_feature":"96","num_nodes":"5","size_leaf_vector":"0"}},{"base_weights":[2.9227093E-1,1.0947174E0,-1.0317007E0,-4.709784E-1,-1.0654689E0,-6.5987045E-1,-1.9361383E-1],"categories":[],"categories_nodes":[],"categories_segments":[],"categories_sizes":[],"default_left":[true,false,true,true,false,false,false],"id":54,"left_children":[1,-1,3,5,-1,-1,-1],"loss_changes":[4.944167E2,0E0,2.8255615E0,4.8910594E-1,0E0,0E0,0E0],"parents":[2147483647,0,0,2,2,3,3],"right_children":[2,-1,4,6,-1,-1,-1],"split_conditions":[1.5304392E-2,4.3788694E-2,1.7245656E-2,4.9476675E-4,-4.2618755E-2,-2.6394818E-2,-7.744553E-3],"split_indices":[3,0,3,21,0,0,0],"split_type":[0,0,0,0,0,0,0],"sum_hessian":[4.6330692E2,2.885766E2,1.7473033E2,1.0774055E1,1.6395627E2,5.5888433E0,5.185211E0],"tree_param":{"num_deleted":"0","num_feature":"96","num_nodes":"7","size_leaf_vector":"0"}},{"base_weights":[2.9094395E-1,1.0772841E0,-1.0493393E0,1.0903379E0,2.9641885E-1,-1.0655944E0,-4.4035262E-1],"categories":[],"categories_nodes":[],"categories_segments":[],"categories_sizes":[],"default_left":[true,true,true,false,false,false,false],"id":55,"left_children":[1,3,5,-1,-1,-1,-1],"loss_changes":[4.7326843E2,2.5597534E0,1.1755371E0,0E0,0E0,0E0,0E0],"parents":[2147483647,0,0,1,1,2,2],"right_children":[2,4,6,-1,-1,-1,-1],"split_conditions":[1.570161E-2,1.4929725E-2,1.3013744E-2,4.3613512E-2,1.1856753E-2,-4.2623777E-2,-1.7614104E-2],"split_indices":[3,3,29,0,0,0,0],"split_type":[0,0,0,0,0,0,0],"sum_hessian":[4.4698337E2,2.8183047E2,1.6515288E2,2.768068E2,5.0236983E0,1.6012892E2,5.0239477E0],"tree_param":{"num_deleted":"0","num_feature":"96","num_nodes":"7","size_leaf_vector":"0"}},{"base_weights":[2.8967446E-1,-1.0029365E0,6.621391E-1,-1.0250864E0,-4.97575E-1,6.069412E-1,1.0603251E0,1.08956E0,5.481812E-1,1.8327361E-1,6.0860574E-1,5.06199E-1,-4.885149E-1,4.6075064E-1,7.3953635E-1],"categories":[],"categories_nodes":[],"categories_segments":[],"categories_sizes":[],"default_left":[true,true,true,false,false,true,false,false,true,true,true,false,false,false,false],"id":56,"left_children":[1,3,5,-1,-1,7,-1,-1,9,11,13,-1,-1,-1,-1],"loss_changes":[2.0877052E2,5.767288E-1,6.744919E0,0E0,0E0,7.8414764E0,0E0,0E0,5.781967E0,8.795239E0,4.090164E0,0E0,0E0,0E0,0E0],"parents":[2147483647,0,0,1,1,2,2,5,5,8,8,9,9,10,10],"right_children":[2,4,6,-1,-1,8,-1,-1,10,12,14,-1,-1,-1,-1],"split_conditions":[4.923934E-4,4.8785208E-4,4.959301E-4,-4.1003454E-2,-1.9903E-2,-3.7987387E-9,4.2413004E-2,4.35824E-2,4.939557E-4,4.4929155E-4,3.667159E-2,2.024796E-2,-1.9540595E-2,1.8430024E-2,2.9581454E-2],"split_indices":[11,15,2,0,0,2,0,0,11,4,0,0,0,0,0],"split_type":[0,0,0,0,0,0,0,0,0,0,0,0,0,0,0],"sum_hessian":[4.3124765E2,9.608816E1,3.351595E2,9.1068214E1,5.0199404E0,2.9657193E2,3.858756E1,3.0285221E1,2.662867E2,3.840283E1,2.278839E2,2.6102148E1,1.2300681E1,1.0914712E2,1.1873678E2],"tree_param":{"num_deleted":"0","num_feature":"96","num_nodes":"15","size_leaf_vector":"0"}},{"base_weights":[2.8423005E-1,1.0838432E0,-1.0237596E0,-4.607951E-1,-1.0604861E0,-6.418852E-1,-1.9562185E-1],"categories":[],"categories_nodes":[],"categories_segments":[],"categories_sizes":[],"default_left":[true,false,true,true,false,false,false],"id":57,"left_children":[1,-1,3,5,-1,-1,-1],"loss_changes":[4.43764E2,0E0,2.841919E0,4.3308783E-1,0E0,0E0,0E0],"parents":[2147483647,0,0,2,2,3,3],"right_children":[2,-1,4,6,-1,-1,-1],"split_conditions":[1.5304392E-2,4.335373E-2,1.7245656E-2,4.9476675E-4,-4.241944E-2,-2.5675409E-2,-7.824874E-3],"split_indices":[3,0,3,21,0,0,0],"split_type":[0,0,0,0,0,0,0],"sum_hessian":[4.2223398E2,2.6214703E2,1.6008694E2,1.0633724E1,1.4945323E2,5.4744964E0,5.159228E0],"tree_param":{"num_deleted":"0","num_feature":"96","num_nodes":"7","size_leaf_vector":"0"}},{"base_weights":[2.82999E-1,-1.000891E0,6.760978E-1,-1.0228685E0,-5.018152E-1,2.0453708E-1,8.349937E-1,-3.4647617E-2,7.2465086E-1,8.850637E-1,9.558449E-2,-4.2596662E-1,8.7850964E-1,1.2231577E-1,9.721837E-1,7.426258E-1,9.5546454E-1,-3.4934223E-1,6.159686E-1,-6.3208115E-1,-2.5574977E-2,5.218494E-1,9.842945E-1,-4.9467084E-1,8.363929E-1,9.724093E-1,4.163944E-1],"categories":[],"categories_nodes":[],"categories_segments":[],"categories_sizes":[],"default_left":[true,true,true,false,false,true,true,true,true,true,true,true,true,false,false,true,true,false,false,false,false,false,false,false,false,false,false],"id":58,"left_children":[1,3,5,-1,-1,7,9,11,13,15,17,19,21,-1,-1,23,25,-1,-1,-1,-1,-1,-1,-1,-1,-1,-1],"loss_changes":[2.0672556E2,5.4081726E-1,2.3294037E1,0E0,0E0,1.0008617E1,8.575241E0,2.0358519E1,3.6570396E0,1.4860535E0,3.9095094E0,3.2702532E0,1.3164043E-1,0E0,0E0,9.336948E0,9.016876E-1,0E0,0E0,0E0,0E0,0E0,0E0,0E0,0E0,0E0,0E0],"parents":[2147483647,0,0,1,1,2,2,5,5,6,6,7,7,8,8,9,9,10,10,11,11,12,12,15,15,16,16],"right_children":[2,4,6,-1,-1,8,10,12,14,16,18,20,22,-1,-1,24,26,-1,-1,-1,-1,-1,-1,-1,-1,-1,-1],"split_conditions":[9.9514794E-1,9.3847344E-4,9.9781E-1,-4.091474E-2,-2.0072607E-2,4.3144695E-2,1.881148E-2,5.0568588E-2,4.9418E-4,9.9814355E-1,9.091159E-6,3.4644883E-2,5.9313588E-2,4.892631E-3,3.8887348E-2,3.443615E-2,1.6827926E-2,-1.3973689E-2,2.4638742E-2,-2.5283245E-2,-1.0229991E-3,2.0873975E-2,3.9371777E-2,-1.9786833E-2,3.3455715E-2,3.889637E-2,1.6655777E-2],"split_indices":[10,37,10,0,0,0,1,1,22,10,5,1,1,0,0,0,1,0,0,0,0,0,0,0,0,0,0],"split_type":[0,0,0,0,0,0,0,0,0,0,0,0,0,0,0,0,0,0,0,0,0,0,0,0,0,0,0],"sum_hessian":[4.072636E2,9.510323E1,3.1216037E2,9.00866E1,5.0166364E0,7.925119E1,2.329092E2,5.4925835E1,2.4325356E1,2.1795325E2,1.4955949E1,3.8822567E1,1.610327E1,7.5201945E0,1.680516E1,7.591246E1,1.4204079E2,8.239709E0,6.71624E0,2.5247133E1,1.3575433E1,5.0408497E0,1.106242E1,5.0464835E0,7.0865974E1,1.3693266E2,5.108121E0],"tree_param":{"num_deleted":"0","num_feature":"96","num_nodes":"27","size_leaf_vector":"0"}},{"base_weights":[2.7928516E-1,1.0775796E0,-1.019377E0,-4.6670926E-1,-1.057653E0,-6.7059755E-2,-8.1058663E-1],"categories":[],"categories_nodes":[],"categories_segments":[],"categories_sizes":[],"default_left":[true,false,true,true,false,false,false],"id":59,"left_children":[1,-1,3,5,-1,-1,-1],"loss_changes":[4.1337277E2,0E0,2.7197723E0,1.5437934E0,0E0,0E0,0E0],"parents":[2147483647,0,0,2,2,3,3],"right_children":[2,-1,4,6,-1,-1,-1],"split_conditions":[1.5304392E-2,4.3103185E-2,1.7245656E-2,4.947035E-4,-4.2306118E-2,-2.6823902E-3,-3.2423463E-2],"split_indices":[3,0,3,32,0,0,0],"split_type":[0,0,0,0,0,0,0],"sum_hessian":[3.9667377E2,2.4576869E2,1.5090508E2,1.0628804E1,1.4027628E2,5.468454E0,5.16035E0],"tree_param":{"num_deleted":"0","num_feature":"96","num_nodes":"7","size_leaf_vector":"0"}},{"base_weights":[2.7809837E-1,-9.959861E-1,6.6140825E-1,-1.0191401E0,-5.072494E-1,1.9554521E-1,8.172402E-1,-6.077906E-1,5.378872E-1,6.9257194E-1,9.5603323E-1,-2.5380293E-1,-9.7276497E-1,-1.08236425E-1,7.4951273E-1,7.3142195E-1,1.6367064E-1,-5.2136195E-1,5.0842095E-2,-7.9202396E-1,4.4807234E-1,-1.08319886E-1,8.743186E-1,8.158306E-1,4.2599106E-1],"categories":[],"categories_nodes":[],"categories_segments":[],"categories_sizes":[],"default_left":[true,true,true,false,false,true,true,true,true,true,false,true,false,true,true,true,false,false,false,false,false,false,false,false,false],"id":60,"left_children":[1,3,5,-1,-1,7,9,11,13,15,-1,17,-1,19,21,23,-1,-1,-1,-1,-1,-1,-1,-1,-1],"loss_changes":[1.8797948E2,4.9140167E-1,2.1289291E1,0E0,0E0,2.1055614E1,3.1633148E0,2.7235641E0,7.3802433E0,2.3480225E0,0E0,1.0881467E0,0E0,5.6972094E0,4.4132805E0,2.5293922E0,0E0,0E0,0E0,0E0,0E0,0E0,0E0,0E0,0E0],"parents":[2147483647,0,0,1,1,2,2,5,5,6,6,7,7,8,8,9,9,11,11,13,13,14,14,15,15],"right_children":[2,4,6,-1,-1,8,10,12,14,16,-1,18,-1,20,22,24,-1,-1,-1,-1,-1,-1,-1,-1,-1],"split_conditions":[9.9514794E-1,4.8020447E-4,9.97807E-1,-4.0765606E-2,-2.0289976E-2,3.998769E-3,9.982285E-1,3.8307704E-4,3.6241806E-6,4.9382093E-4,3.8241327E-2,-3.8276076E-2,-3.8910598E-2,8.406698E-3,1.6638958E-5,4.9398676E-4,6.5468256E-3,-2.0854477E-2,2.0336837E-3,-3.1680956E-2,1.7922893E-2,-4.3327953E-3,3.4972742E-2,3.2633223E-2,1.7039642E-2],"split_indices":[10,25,10,0,0,29,10,4,27,5,0,94,0,29,22,28,0,0,0,0,0,0,0,0,0],"split_type":[0,0,0,0,0,0,0,0,0,0,0,0,0,0,0,0,0,0,0,0,0,0,0,0,0],"sum_hessian":[3.825638E2,8.810686E1,2.9445694E2,8.30854E1,5.02145E0,7.437278E1,2.2008417E2,2.1991766E1,5.2381012E1,1.19097244E2,1.0098692E2,1.2024569E1,9.967197E0,1.3044078E1,3.9336933E1,1.10590965E2,8.506274E0,6.023215E0,6.001354E0,5.6615114E0,7.3825665E0,5.012999E0,3.4323936E1,8.533639E1,2.525458E1],"tree_param":{"num_deleted":"0","num_feature":"96","num_nodes":"25","size_leaf_vector":"0"}},{"base_weights":[2.738934E-1,1.0716677E0,-1.0156031E0,-4.7296757E-1,-1.0554522E0,-6.403164E-1,-2.2258773E-1],"categories":[],"categories_nodes":[],"categories_segments":[],"categories_sizes":[],"default_left":[true,false,true,true,false,false,false],"id":61,"left_children":[1,-1,3,5,-1,-1,-1],"loss_changes":[3.8578842E2,0E0,2.6025543E0,3.4458232E-1,0E0,0E0,0E0],"parents":[2147483647,0,0,2,2,3,3],"right_children":[2,-1,4,6,-1,-1,-1],"split_conditions":[1.5304392E-2,4.2866707E-2,1.7245656E-2,4.9476675E-4,-4.221809E-2,-2.5612656E-2,-8.903509E-3],"split_indices":[3,0,3,21,0,0,0],"split_type":[0,0,0,0,0,0,0],"sum_hessian":[3.7295734E2,2.3051395E2,1.424434E2,1.0625298E1,1.3181812E2,5.435163E0,5.190134E0],"tree_param":{"num_deleted":"0","num_feature":"96","num_nodes":"7","size_leaf_vector":"0"}},{"base_weights":[2.7275208E-1,1.0683413E0,-1.0110699E0,-4.606638E-1,-1.0527853E0,-6.8715386E-2,-7.999442E-1],"categories":[],"categories_nodes":[],"categories_segments":[],"categories_sizes":[],"default_left":[true,false,true,true,false,false,false],"id":62,"left_children":[1,-1,3,5,-1,-1,-1],"loss_changes":[3.694523E2,0E0,2.6950684E0,1.4790328E0,0E0,0E0,0E0],"parents":[2147483647,0,0,2,2,3,3],"right_children":[2,-1,4,6,-1,-1,-1],"split_conditions":[1.5304392E-2,4.273365E-2,1.7245656E-2,4.947035E-4,-4.211141E-2,-2.7486153E-3,-3.1997766E-2],"split_indices":[3,0,3,32,0,0,0],"split_type":[0,0,0,0,0,0,0],"sum_hessian":[3.5965594E2,2.221541E2,1.3750186E2,1.0535543E1,1.2696632E2,5.446311E0,5.089233E0],"tree_param":{"num_deleted":"0","num_feature":"96","num_nodes":"7","size_leaf_vector":"0"}},{"base_weights":[2.7162862E-1,1.065148E0,-1.0065726E0,-4.4881347E-1,-1.0501956E0,-2.1733905E-1,-5.984733E-1],"categories":[],"categories_nodes":[],"categories_segments":[],"categories_sizes":[],"default_left":[true,false,true,true,false,false,false],"id":63,"left_children":[1,-1,3,5,-1,-1,-1],"loss_changes":[3.5384314E2,0E0,2.7825012E0,2.6647758E-1,0E0,0E0,0E0],"parents":[2147483647,0,0,2,2,3,3],"right_children":[2,-1,4,6,-1,-1,-1],"split_conditions":[1.5304392E-2,4.2605918E-2,1.7245656E-2,2.1898419E-2,-4.2007823E-2,-8.693562E-3,-2.3938932E-2],"split_indices":[3,0,3,95,0,0,0],"split_type":[0,0,0,0,0,0,0],"sum_hessian":[3.4680524E2,2.1407324E2,1.32732E2,1.0446927E1,1.2228507E2,5.065103E0,5.381824E0],"tree_param":{"num_deleted":"0","num_feature":"96","num_nodes":"7","size_leaf_vector":"0"}},{"base_weights":[2.705196E-1,1.0620807E0,-1.0019755E0,-4.365913E-1,-1.0476794E0,-7.1302706E-1,-7.412936E-2],"categories":[],"categories_nodes":[],"categories_segments":[],"categories_sizes":[],"default_left":[true,false,true,true,false,false,false],"id":64,"left_children":[1,-1,3,5,-1,-1,-1],"loss_changes":[3.3890475E2,0E0,2.879654E0,1.0867004E0,0E0,0E0,0E0],"parents":[2147483647,0,0,2,2,3,3],"right_children":[2,-1,4,6,-1,-1,-1],"split_conditions":[1.5304392E-2,4.248323E-2,1.7245656E-2,3.470581E-3,-4.1907176E-2,-2.8521081E-2,-2.9651741E-3],"split_indices":[3,0,3,29,0,0,0],"split_type":[0,0,0,0,0,0,0],"sum_hessian":[3.344063E2,2.0626416E2,1.2814215E2,1.037311E1,1.1776904E2,5.33621E0,5.0368996E0],"tree_param":{"num_deleted":"0","num_feature":"96","num_nodes":"7","size_leaf_vector":"0"}},{"base_weights":[2.6943168E-1,1.0416923E0,-1.0266242E0,1.059055E0,3.0072588E-1,-1.048558E0,-4.3124834E-1],"categories":[],"categories_nodes":[],"categories_segments":[],"categories_sizes":[],"default_left":[true,true,true,false,false,false,false],"id":65,"left_children":[1,3,5,-1,-1,-1,-1],"loss_changes":[3.2478705E2,2.2952728E0,1.1313934E0,0E0,0E0,0E0,0E0],"parents":[2147483647,0,0,1,1,2,2],"right_children":[2,4,6,-1,-1,-1,-1],"split_conditions":[1.570161E-2,1.4878305E-2,1.17620155E-2,4.23622E-2,1.2029035E-2,-4.194232E-2,-1.7249933E-2],"split_indices":[3,3,29,0,0,0,0],"split_type":[0,0,0,0,0,0,0],"sum_hessian":[3.224289E2,2.0216454E2,1.2026435E2,1.971163E2,5.0482306E0,1.1525708E2,5.0072727E0],"tree_param":{"num_deleted":"0","num_feature":"96","num_nodes":"7","size_leaf_vector":"0"}},{"base_weights":[2.6839134E-1,-9.803356E-1,6.026257E-1,-1.0071857E0,-5.431231E-1,5.4234403E-1,1.0381271E0,1.0164913E0,4.775473E-1,3.866373E-1,7.659506E-1,-2.0271443E-1,4.6943673E-1,9.052785E-1,5.2070796E-1],"categories":[],"categories_nodes":[],"categories_segments":[],"categories_sizes":[],"default_left":[true,true,true,false,false,true,false,false,true,true,true,false,false,false,false],"id":66,"left_children":[1,3,5,-1,-1,7,-1,-1,9,11,13,-1,-1,-1,-1],"loss_changes":[1.3077545E2,2.30587E-1,5.912941E0,0E0,0E0,6.2361603E0,0E0,0E0,4.799755E0,7.404995E0,1.0854702E0,0E0,0E0,0E0,0E0],"parents":[2147483647,0,0,1,1,2,2,5,5,8,8,9,9,10,10],"right_children":[2,4,6,-1,-1,8,-1,-1,10,12,14,-1,-1,-1,-1],"split_conditions":[4.923934E-4,9.125441E-3,4.9593E-4,-4.0287428E-2,-2.1724924E-2,-9.079468E-7,4.152508E-2,4.065965E-2,6.9441474E-3,4.939796E-4,4.89933E-4,-8.108577E-3,1.877747E-2,3.621114E-2,2.0828318E-2],"split_indices":[11,29,21,0,0,21,0,0,29,11,28,0,0,0,0],"split_type":[0,0,0,0,0,0,0,0,0,0,0,0,0,0,0],"sum_hessian":[3.1091858E2,6.5240746E1,2.4567784E2,6.0237766E1,5.002978E0,2.177785E2,2.7899342E1,2.4417467E1,1.9336104E2,1.4879785E2,4.4563183E1,1.8151367E1,1.3064648E2,2.670188E1,1.7861301E1],"tree_param":{"num_deleted":"0","num_feature":"96","num_nodes":"15","size_leaf_vector":"0"}},{"base_weights":[2.6313597E-1,-9.7739214E-1,5.883462E-1,-1.005731E0,-5.370364E-1,5.2815044E-1,1.032219E0,4.5330277E-1,1.017555E0,2.2774988E-1,5.7092935E-1,-3.7352195E-1,2.89467E-1,3.7923682E-1,1.029982E0],"categories":[],"categories_nodes":[],"categories_segments":[],"categories_sizes":[],"default_left":[true,true,true,false,false,true,false,true,false,true,true,false,false,false,false],"id":67,"left_children":[1,3,5,-1,-1,7,-1,9,-1,11,13,-1,-1,-1,-1],"loss_changes":[1.2394923E2,2.5722885E-1,5.9453964E0,0E0,0E0,7.449379E0,0E0,4.887329E0,0E0,2.575228E0,1.0488434E1,0E0,0E0,0E0,0E0],"parents":[2147483647,0,0,1,1,2,2,5,5,7,7,9,9,10,10],"right_children":[2,4,6,-1,-1,8,-1,10,-1,12,14,-1,-1,-1,-1],"split_conditions":[4.923934E-4,4.8747187E-4,4.9593E-4,-4.022924E-2,-2.1481456E-2,4.9606676E-4,4.128876E-2,5.1958665E-7,4.0702198E-2,4.9356656E-4,4.6577618E-8,-1.4940877E-2,1.157868E-2,1.5169472E-2,4.1199278E-2],"split_indices":[11,20,21,0,0,20,0,21,0,11,20,0,0,0,0],"split_type":[0,0,0,0,0,0,0,0,0,0,0,0,0,0,0],"sum_hessian":[3.0481125E2,6.2894005E1,2.4191725E2,5.788494E1,5.009066E0,2.149559E2,2.696135E1,1.8811287E2,2.6843039E1,6.548307E1,1.2262979E2,5.6254673E0,5.9857605E1,8.779446E1,3.4835335E1],"tree_param":{"num_deleted":"0","num_feature":"96","num_nodes":"15","size_leaf_vector":"0"}},{"base_weights":[2.5805706E-1,-9.783804E-1,6.053913E-1,-1.0061611E0,-5.3278583E-1,1.5388538E-1,7.6273406E-1,-1.4497165E-1,6.956697E-1,8.180885E-1,1.1617088E-2,-4.0623692E-1,4.6078566E-1,9.807555E-1,4.6824537E-2,7.2226775E-1,9.60616E-1,4.485447E-1,-3.942119E-1,-6.2416047E-1,5.2777874E-1,2.9766925E-2,7.3830855E-1,-2.670217E-1,8.260096E-1],"categories":[],"categories_nodes":[],"categories_segments":[],"categories_sizes":[],"default_left":[true,true,true,false,false,true,true,true,true,true,true,true,true,false,false,true,false,false,false,false,false,false,false,false,false],"id":68,"left_children":[1,3,5,-1,-1,7,9,11,13,15,17,19,21,-1,-1,23,-1,-1,-1,-1,-1,-1,-1,-1,-1],"loss_changes":[1.2931499E2,2.8237915E-1,1.655011E1,0E0,0E0,1.0120882E1,7.213913E0,6.630277E0,4.0555468E0,1.5158081E0,2.4711475E0,6.227084E0,1.5015075E0,0E0,0E0,1.0563679E1,0E0,0E0,0E0,0E0,0E0,0E0,0E0,0E0,0E0],"parents":[2147483647,0,0,1,1,2,2,5,5,6,6,7,7,8,8,9,9,10,10,11,11,12,12,15,15],"right_children":[2,4,6,-1,-1,8,10,12,14,16,18,20,22,-1,-1,24,-1,-1,-1,-1,-1,-1,-1,-1,-1],"split_conditions":[9.9514794E-1,1.4224609E-3,9.9781E-1,-4.0246442E-2,-2.1311432E-2,1.2704088E-6,1.881148E-2,4.351015E-2,4.932622E-4,9.9828035E-1,1.954758E-3,1.235824E-3,4.9485685E-4,3.923022E-2,1.8729814E-3,3.3223227E-2,3.8424637E-2,1.7941788E-2,-1.5768476E-2,-2.4966419E-2,2.111115E-2,1.1906769E-3,2.9532341E-2,-1.0680867E-2,3.3040382E-2],"split_indices":[10,34,10,0,0,17,1,0,17,10,9,34,31,0,0,0,0,0,0,0,0,0,0,0,0],"split_type":[0,0,0,0,0,0,0,0,0,0,0,0,0,0,0,0,0,0,0,0,0,0,0,0,0],"sum_hessian":[2.9873352E2,6.5116295E1,2.3361723E2,6.0110664E1,5.005631E0,6.08841E1,1.7273314E2,3.9711185E1,2.1172916E1,1.6079408E2,1.1939055E1,2.797489E1,1.1736296E1,1.4354417E1,6.8185E0,9.977997E1,6.1014114E1,5.6985598E0,6.240495E0,2.2951593E1,5.0232964E0,5.0305877E0,6.705708E0,9.320935E0,9.045903E1],"tree_param":{"num_deleted":"0","num_feature":"96","num_nodes":"25","size_leaf_vector":"0"}},{"base_weights":[2.5441867E-1,1.0516108E0,-9.9538547E-1,-4.5687404E-1,-1.0446466E0,-6.893372E-1,-1.372078E-1],"categories":[],"categories_nodes":[],"categories_segments":[],"categories_sizes":[],"default_left":[true,false,true,true,false,false,false],"id":69,"left_children":[1,-1,3,5,-1,-1,-1],"loss_changes":[2.922427E2,0E0,2.5557938E0,7.4956894E-1,0E0,0E0,0E0],"parents":[2147483647,0,0,2,2,3,3],"right_children":[2,-1,4,6,-1,-1,-1],"split_conditions":[1.5304392E-2,4.2064432E-2,1.7245656E-2,4.946663E-4,-4.1785862E-2,-2.7573487E-2,-5.4883123E-3],"split_indices":[3,0,3,27,0,0,0],"split_type":[0,0,0,0,0,0,0],"sum_hessian":[2.9126736E2,1.7793161E2,1.13335754E2,1.0359769E1,1.0297598E2,5.3284564E0,5.031312E0],"tree_param":{"num_deleted":"0","num_feature":"96","num_nodes":"7","size_leaf_vector":"0"}},{"base_weights":[2.53398E-1,1.049059E0,-9.906837E-1,-4.448415E-1,-1.042247E0,-6.7408675E-1,-1.3284235E-1],"categories":[],"categories_nodes":[],"categories_segments":[],"categories_sizes":[],"default_left":[true,false,true,true,false,false,false],"id":70,"left_children":[1,-1,3,5,-1,-1,-1],"loss_changes":[2.7998923E2,0E0,2.6447678E0,7.1703315E-1,0E0,0E0,0E0],"parents":[2147483647,0,0,2,2,3,3],"right_children":[2,-1,4,6,-1,-1,-1],"split_conditions":[1.5304392E-2,4.196236E-2,1.7245656E-2,4.946663E-4,-4.168988E-2,-2.6963469E-2,-5.3136935E-3],"split_indices":[3,0,3,27,0,0,0],"split_type":[0,0,0,0,0,0,0],"sum_hessian":[2.808054E2,1.7136467E2,1.09440704E2,1.027701E1,9.916369E1,5.255169E0,5.021841E0],"tree_param":{"num_deleted":"0","num_feature":"96","num_nodes":"7","size_leaf_vector":"0"}},{"base_weights":[2.5238684E-1,1.0465986E0,-9.859734E-1,-4.3310747E-1,-1.0399071E0,-6.591505E-1,-1.2861167E-1],"categories":[],"categories_nodes":[],"categories_segments":[],"categories_sizes":[],"default_left":[true,false,true,true,false,false,false],"id":71,"left_children":[1,-1,3,5,-1,-1,-1],"loss_changes":[2.682649E2,0E0,2.730713E0,6.8584013E-1,0E0,0E0,0E0],"parents":[2147483647,0,0,2,2,3,3],"right_children":[2,-1,4,6,-1,-1,-1],"split_conditions":[1.5304392E-2,4.186394E-2,1.7245656E-2,4.946663E-4,-4.1596282E-2,-2.6366018E-2,-5.1444666E-3],"split_indices":[3,0,3,27,0,0,0],"split_type":[0,0,0,0,0,0,0],"sum_hessian":[2.7071072E2,1.6502696E2,1.0568376E2,1.0196047E1,9.548772E1,5.1834073E0,5.0126395E0],"tree_param":{"num_deleted":"0","num_feature":"96","num_nodes":"7","size_leaf_vector":"0"}},{"base_weights":[2.5138375E-1,1.0442243E0,-9.812495E-1,-4.2166373E-1,-1.0376235E0,-6.8138355E-1,-9.744869E-2],"categories":[],"categories_nodes":[],"categories_segments":[],"categories_sizes":[],"default_left":[true,false,true,true,false,false,false],"id":72,"left_children":[1,-1,3,5,-1,-1,-1],"loss_changes":[2.5704514E2,0E0,2.8136292E0,8.6969817E-1,0E0,0E0,0E0],"parents":[2147483647,0,0,2,2,3,3],"right_children":[2,-1,4,6,-1,-1,-1],"split_conditions":[1.5304392E-2,4.1768968E-2,1.7245656E-2,3.4697715E-3,-4.1504942E-2,-2.7255341E-2,-3.8979475E-3],"split_indices":[3,0,3,29,0,0,0],"split_type":[0,0,0,0,0,0,0],"sum_hessian":[2.609721E2,1.5891162E2,1.0206049E2,1.0116885E1,9.19436E1,5.005486E0,5.111399E0],"tree_param":{"num_deleted":"0","num_feature":"96","num_nodes":"7","size_leaf_vector":"0"}},{"base_weights":[2.5038043E-1,1.0198102E0,-1.0117161E0,1.0418363E0,2.946285E-1,-1.0387647E0,-4.329946E-1],"categories":[],"categories_nodes":[],"categories_segments":[],"categories_sizes":[],"default_left":[true,true,true,false,false,false,false],"id":73,"left_children":[1,3,5,-1,-1,-1,-1],"loss_changes":[2.4631491E2,2.2074432E0,1.0555801E0,0E0,0E0,0E0,0E0],"parents":[2147483647,0,0,1,1,2,2],"right_children":[2,4,6,-1,-1,-1,-1],"split_conditions":[1.570161E-2,1.4873676E-2,1.0872411E-2,4.1673448E-2,1.1785139E-2,-4.1550588E-2,-1.7319784E-2],"split_indices":[3,3,29,0,0,0,0],"split_type":[0,0,0,0,0,0,0],"sum_hessian":[2.5158417E2,1.5641727E2,9.51669E1,1.5138266E2,5.0346093E0,9.015812E1,5.008786E0],"tree_param":{"num_deleted":"0","num_feature":"96","num_nodes":"7","size_leaf_vector":"0"}},{"base_weights":[2.494242E-1,5.3785723E-1,-9.169572E-1,1.0505314E0,4.845871E-1,-9.92702E-1,-4.331551E-1,4.135903E-1,9.9931973E-1,3.4857455E-1,7.68187E-1,2.6241758E-1,6.850669E-1,8.7212956E-1,3.141275E-1],"categories":[],"categories_nodes":[],"categories_segments":[],"categories_sizes":[],"default_left":[true,true,true,false,true,false,false,true,false,true,true,false,false,false,false],"id":74,"left_children":[1,3,5,-1,7,-1,-1,9,-1,11,13,-1,-1,-1,-1],"loss_changes":[8.2440384E1,4.841572E0,1.3532829E0,0E0,6.1404037E0,0E0,0E0,3.4048996E0,0E0,3.7761345E0,8.517771E-1,0E0,0E0,0E0,0E0],"parents":[2147483647,0,0,1,1,2,2,4,4,7,7,9,9,10,10],"right_children":[2,4,6,-1,8,-1,-1,10,-1,12,14,-1,-1,-1,-1],"split_conditions":[-3.8065165E-2,-3.7987387E-9,2.1555852E-2,4.2021256E-2,4.959301E-4,-3.9708078E-2,-1.7326204E-2,1.980624E-3,3.997279E-2,4.6577618E-8,-3.8268253E-2,1.0496703E-2,2.7402675E-2,3.4885183E-2,1.25651E-2],"split_indices":[94,2,95,0,2,0,0,55,0,25,94,0,0,0,0],"split_type":[0,0,0,0,0,0,0,0,0,0,0,0,0,0,0],"sum_hessian":[2.4258388E2,1.9492097E2,4.76629E1,1.658503E1,1.7833594E2,4.0301376E1,7.361523E0,1.5830458E2,2.0031355E1,1.3545224E2,2.2852337E1,1.0925737E2,2.6194872E1,1.7846262E1,5.0060754E0],"tree_param":{"num_deleted":"0","num_feature":"96","num_nodes":"15","size_leaf_vector":"0"}},{"base_weights":[2.4410939E-1,1.0386246E0,-9.7257626E-1,-4.0738893E-1,-1.0339073E0],"categories":[],"categories_nodes":[],"categories_segments":[],"categories_sizes":[],"default_left":[true,false,true,false,false],"id":75,"left_children":[1,-1,3,-1,-1],"loss_changes":[2.3246623E2,0E0,2.8754349E0,0E0,0E0],"parents":[2147483647,0,0,2,2],"right_children":[2,-1,4,-1,-1],"split_conditions":[1.5304392E-2,4.1544985E-2,1.7245656E-2,-1.6295556E-2,-4.135629E-2],"split_indices":[3,0,3,0,0],"split_type":[0,0,0,0,0],"sum_hessian":[2.3843518E2,1.4433104E2,9.410414E1,9.960157E0,8.414398E1],"tree_param":{"num_deleted":"0","num_feature":"96","num_nodes":"5","size_leaf_vector":"0"}},{"base_weights":[2.4319084E-1,-9.6286625E-1,5.6523997E-1,-9.935563E-1,-5.778759E-1,1.3125893E-1,7.183355E-1,-1.612909E-1,6.6988176E-1,6.022889E-1,9.1812676E-1,-4.042472E-1,4.0617526E-1,9.4461393E-1,7.30813E-2,1.3885859E-1,8.2401645E-1,-7.041742E-1,4.0891165E-1,-2.850167E-1,3.2008457E-1,5.8813184E-1,9.55824E-1],"categories":[],"categories_nodes":[],"categories_segments":[],"categories_sizes":[],"default_left":[true,true,true,false,false,true,true,true,true,true,false,true,false,false,false,true,true,false,false,false,false,false,false],"id":76,"left_children":[1,3,5,-1,-1,7,9,11,13,15,-1,17,-1,-1,-1,19,21,-1,-1,-1,-1,-1,-1],"loss_changes":[9.020934E1,5.065918E-3,1.2053024E1,0E0,0E0,